{"learner":{"attributes":{"scikit_learn":"{\"_estimator_type\": \"regressor\"}"},"feature_names":["delta_temp","delta_squared","temp_ext","temp_start","temp_preference","humidity_ext","hour","room_encoded","apt_encoded","morning","day","evening","temp_diff_ext","heating_difficulty","target_gap","delta_x_hour","ext_x_hour"],"feature_types":["float","float","float","float","float","float","float","float","float","float","float","float","float","float","float","float","float"],"gradient_booster":{"model":{"cats":{"enc":[],"feature_segments":[],"sorted_idx":[]},"gbtree_model_param":{"num_parallel_tree":"1","num_trees":"400"},"iteration_indptr":[0,1,2,3,4,5,6,7,8,9,10,11,12,13,14,15,16,17,18,19,20,21,22,23,24,25,26,27,28,29,30,31,32,33,34,35,36,37,38,39,40,41,42,43,44,45,46,47,48,49,50,51,52,53,54,55,56,57,58,59,60,61,62,63,64,65,66,67,68,69,70,71,72,73,74,75,76,77,78,79,80,81,82,83,84,85,86,87,88,89,90,91,92,93,94,95,96,97,98,99,100,101,102,103,104,105,106,107,108,109,110,111,112,113,114,115,116,117,118,119,120,121,122,123,124,125,126,127,128,129,130,131,132,133,134,135,136,137,138,139,140,141,142,143,144,145,146,147,148,149,150,151,152,153,154,155,156,157,158,159,160,161,162,163,164,165,166,167,168,169,170,171,172,173,174,175,176,177,178,179,180,181,182,183,184,185,186,187,188,189,190,191,192,193,194,195,196,197,198,199,200,201,202,203,204,205,206,207,208,209,210,211,212,213,214,215,216,217,218,219,220,221,222,223,224,225,226,227,228,229,230,231,232,233,234,235,236,237,238,239,240,241,242,243,244,245,246,247,248,249,250,251,252,253,254,255,256,257,258,259,260,261,262,263,264,265,266,267,268,269,270,271,272,273,274,275,276,277,278,279,280,281,282,283,284,285,286,287,288,289,290,291,292,293,294,295,296,297,298,299,300,301,302,303,304,305,306,307,308,309,310,311,312,313,314,315,316,317,318,319,320,321,322,323,324,325,326,327,328,329,330,331,332,333,334,335,336,337,338,339,340,341,342,343,344,345,346,347,348,349,350,351,352,353,354,355,356,357,358,359,360,361,362,363,364,365,366,367,368,369,370,371,372,373,374,375,376,377,378,379,380,381,382,383,384,385,386,387,388,389,390,391,392,393,394,395,396,397,398,399,400],"tree_info":[0,0,0,0,0,0,0,0,0,0,0,0,0,0,0,0,0,0,0,0,0,0,0,0,0,0,0,0,0,0,0,0,0,0,0,0,0,0,0,0,0,0,0,0,0,0,0,0,0,0,0,0,0,0,0,0,0,0,0,0,0,0,0,0,0,0,0,0,0,0,0,0,0,0,0,0,0,0,0,0,0,0,0,0,0,0,0,0,0,0,0,0,0,0,0,0,0,0,0,0,0,0,0,0,0,0,0,0,0,0,0,0,0,0,0,0,0,0,0,0,0,0,0,0,0,0,0,0,0,0,0,0,0,0,0,0,0,0,0,0,0,0,0,0,0,0,0,0,0,0,0,0,0,0,0,0,0,0,0,0,0,0,0,0,0,0,0,0,0,0,0,0,0,0,0,0,0,0,0,0,0,0,0,0,0,0,0,0,0,0,0,0,0,0,0,0,0,0,0,0,0,0,0,0,0,0,0,0,0,0,0,0,0,0,0,0,0,0,0,0,0,0,0,0,0,0,0,0,0,0,0,0,0,0,0,0,0,0,0,0,0,0,0,0,0,0,0,0,0,0,0,0,0,0,0,0,0,0,0,0,0,0,0,0,0,0,0,0,0,0,0,0,0,0,0,0,0,0,0,0,0,0,0,0,0,0,0,0,0,0,0,0,0,0,0,0,0,0,0,0,0,0,0,0,0,0,0,0,0,0,0,0,0,0,0,0,0,0,0,0,0,0,0,0,0,0,0,0,0,0,0,0,0,0,0,0,0,0,0,0,0,0,0,0,0,0,0,0,0,0,0,0,0,0,0,0,0,0,0,0,0,0,0,0,0,0,0,0,0,0,0,0,0,0,0,0,0,0,0,0,0,0,0,0,0,0,0,0,0,0,0,0,0,0,0,0,0,0,0,0],"trees":[{"base_weights":[-2.1740565E-1,1.5118301E1,-1.3333643E1,7.5630627E0,2.5152975E1,-4.779342E0,-2.4386787E1,6.338627E-1,1.14376335E1,2.1236017E1,3.611767E1,-1.159873E1,3.1241465E0,-9.102876E0,-2.6320953E1,-5.269709E0,1.373444E1,1.2761495E1,-2.4844677E0,3.0834108E1,1.3342278E1,8.526389E-1,2.4019093E1,-8.585685E0,-2.3515745E1,2.043005E1,-5.965566E0,5.483797E0,-1.3405826E1,-2.6856909E1,8.6492405E0,-2.2390575E0,-1.3844242E1,-5.9295936E0,1.78726E1,1.4542817E1,4.859905E0,-6.418085E0,8.893619E-1,3.1436686E1,7.586171E-2,9.609894E0,3.547234E1,3.354343E-1,5.703694E-1,4.042837E0,-1.1165859E1,-1.7373653E1,-5.8601195E-1,2.4327478E1,-8.086434E-1,3.1747584E0,-1.0944698E1,-9.170921E-2,1.2375266E1,-1.8256008E1,6.3843975E0,-2.9436745E1,-1.9508217E1,2.5861707E-2,2.758617E-1,2.1736826E-1,-8.393418E-2,-3.554862E-1,2.2505322E-2,5.451915E-2,-2.2587234E-1,-1.5149467E-1,4.4597873E-1,3.5184062E-1,2.3795806E-1,1.9708337E-2,4.261354E-1,-2.3880847E-2,-1.6736595E-1,-1.11586615E-1,9.886268E-2,5.5534714E-1,7.561228E-1,-3.7783973E-3,3.0809042E-1,4.3012768E-1,7.824931E-1,-1.5320663E-2,2.2619621E-1,-1.5906687E-1,-2.7389395E-1,-1.4388084E-1,-3.6968938E-1,2.5861707E-2,5.0366604E-1,3.758617E-1,-1.3586251E-1,2.3315237E-3,1.7026773E-1,4.258617E-1,-2.3910019E-1,3.3451915E-1,7.586171E-2,-4.14126E-1,-1.8253428E-1,-1.7213829E-1,3.0695745E-1,-3.2736593E-1,-5.956797E-1,-2.0149466E-1,-4.010976E-1],"categories":[],"categories_nodes":[],"categories_segments":[],"categories_sizes":[],"default_left":[0,0,0,0,0,0,0,0,0,0,0,0,0,0,0,0,0,0,0,0,0,0,0,0,0,0,0,0,0,0,0,0,0,0,0,0,0,0,0,0,0,0,0,0,0,0,0,0,0,0,0,0,0,0,0,0,0,0,0,0,0,0,0,0,0,0,0,0,0,0,0,0,0,0,0,0,0,0,0,0,0,0,0,0,0,0,0,0,0,0,0,0,0,0,0,0,0,0,0,0,0,0,0,0,0,0,0],"id":0,"left_children":[1,3,5,7,9,11,13,15,17,19,21,23,25,27,29,31,33,35,37,39,41,-1,43,45,47,49,51,53,55,57,59,61,63,65,67,69,71,73,75,77,-1,79,81,-1,-1,83,85,87,-1,89,91,93,95,-1,97,99,101,103,105,-1,-1,-1,-1,-1,-1,-1,-1,-1,-1,-1,-1,-1,-1,-1,-1,-1,-1,-1,-1,-1,-1,-1,-1,-1,-1,-1,-1,-1,-1,-1,-1,-1,-1,-1,-1,-1,-1,-1,-1,-1,-1,-1,-1,-1,-1,-1,-1],"loss_changes":[3.996787E5,6.924917E4,1.0114272E5,1.4058518E4,1.61001875E4,3.2645586E4,1.3558594E4,1.4691366E4,6.2265547E3,2.1703094E4,7.001672E3,1.1461297E4,4.432767E4,3.4644487E3,7.9953125E3,3.3700063E3,4.90937E3,4.246551E3,4.0495435E2,2.0082656E3,1.3030959E4,0E0,7.5176953E2,8.550936E3,1.791125E3,8.053672E3,8.455814E3,9.604E2,4.1503467E3,7.151E3,2.4401965E2,2.5589438E3,2.0235913E3,5.432138E2,5.6911377E3,1.8010234E3,3.6704897E3,1.3072736E2,4.7323642E2,1.9286719E3,0E0,7.9552207E3,3.1963086E2,0E0,0E0,1.5833398E3,1.6496445E3,2.4634668E2,0E0,1.5786406E3,2.002163E3,1.0748306E3,4.161115E3,0E0,2.3116052E2,5.656133E2,1.3428142E3,8.64625E2,3.5403125E2,0E0,0E0,0E0,0E0,0E0,0E0,0E0,0E0,0E0,0E0,0E0,0E0,0E0,0E0,0E0,0E0,0E0,0E0,0E0,0E0,0E0,0E0,0E0,0E0,0E0,0E0,0E0,0E0,0E0,0E0,0E0,0E0,0E0,0E0,0E0,0E0,0E0,0E0,0E0,0E0,0E0,0E0,0E0,0E0,0E0,0E0,0E0,0E0],"parents":[2147483647,0,0,1,1,2,2,3,3,4,4,5,5,6,6,7,7,8,8,9,9,10,10,11,11,12,12,13,13,14,14,15,15,16,16,17,17,18,18,19,19,20,20,22,22,23,23,24,24,25,25,26,26,27,27,28,28,29,29,30,30,31,31,32,32,33,33,34,34,35,35,36,36,37,37,38,38,39,39,41,41,42,42,45,45,46,46,47,47,49,49,50,50,51,51,52,52,54,54,55,55,56,56,57,57,58,58],"right_children":[2,4,6,8,10,12,14,16,18,20,22,24,26,28,30,32,34,36,38,40,42,-1,44,46,48,50,52,54,56,58,60,62,64,66,68,70,72,74,76,78,-1,80,82,-1,-1,84,86,88,-1,90,92,94,96,-1,98,100,102,104,106,-1,-1,-1,-1,-1,-1,-1,-1,-1,-1,-1,-1,-1,-1,-1,-1,-1,-1,-1,-1,-1,-1,-1,-1,-1,-1,-1,-1,-1,-1,-1,-1,-1,-1,-1,-1,-1,-1,-1,-1,-1,-1,-1,-1,-1,-1,-1,-1],"split_conditions":[2.02E1,4.95E-1,2.16E1,3.36E-1,3E1,2.15E1,1E0,3E0,1E0,1E0,1.34E1,2.03E1,6E0,9.8E0,2.3E1,1E0,4.97E1,1E0,1.06E1,2.3E1,7E0,8.526389E-1,1.554E0,1.14E1,1E0,2.14E1,2.1E1,8.7E0,1.5E1,3.04E-1,1.93E1,5.75E1,1.3E1,5E0,1.8E1,1.11E1,8.4E0,4.04E-1,8.5E0,6.51E-1,7.586171E-2,1.12E1,1.21E1,3.354343E-1,5.703694E-1,2.72E-1,1.26E1,1.31E1,-5.8601195E-1,2.03E1,1.3E1,1.3E1,1E1,-9.170921E-2,9.3E0,3.7E-1,6.73E1,4E0,9.4E0,2.5861707E-2,2.758617E-1,2.1736826E-1,-8.393418E-2,-3.554862E-1,2.2505322E-2,5.451915E-2,-2.2587234E-1,-1.5149467E-1,4.4597873E-1,3.5184062E-1,2.3795806E-1,1.9708337E-2,4.261354E-1,-2.3880847E-2,-1.6736595E-1,-1.11586615E-1,9.886268E-2,5.5534714E-1,7.561228E-1,-3.7783973E-3,3.0809042E-1,4.3012768E-1,7.824931E-1,-1.5320663E-2,2.2619621E-1,-1.5906687E-1,-2.7389395E-1,-1.4388084E-1,-3.6968938E-1,2.5861707E-2,5.0366604E-1,3.758617E-1,-1.3586251E-1,2.3315237E-3,1.7026773E-1,4.258617E-1,-2.3910019E-1,3.3451915E-1,7.586171E-2,-4.14126E-1,-1.8253428E-1,-1.7213829E-1,3.0695745E-1,-3.2736593E-1,-5.956797E-1,-2.0149466E-1,-4.010976E-1],"split_indices":[3,13,3,13,15,4,10,8,9,10,2,3,8,2,4,10,5,10,2,6,8,0,13,2,10,3,3,2,2,13,2,5,6,8,3,2,15,13,12,13,0,15,15,0,0,13,2,2,0,3,6,6,6,0,2,13,5,8,2,0,0,0,0,0,0,0,0,0,0,0,0,0,0,0,0,0,0,0,0,0,0,0,0,0,0,0,0,0,0,0,0,0,0,0,0,0,0,0,0,0,0,0,0,0,0,0,0],"split_type":[0,0,0,0,0,0,0,0,0,0,0,0,0,0,0,0,0,0,0,0,0,0,0,0,0,0,0,0,0,0,0,0,0,0,0,0,0,0,0,0,0,0,0,0,0,0,0,0,0,0,0,0,0,0,0,0,0,0,0,0,0,0,0,0,0,0,0,0,0,0,0,0,0,0,0,0,0,0,0,0,0,0,0,0,0,0,0,0,0,0,0,0,0,0,0,0,0,0,0,0,0,0,0,0,0,0,0],"sum_hessian":[1.985E3,9.15E2,1.07E3,5.23E2,3.92E2,6.04E2,4.66E2,1.88E2,3.35E2,2.91E2,1.01E2,3.24E2,2.8E2,5.3E1,4.13E2,1.3E2,5.8E1,3.06E2,2.9E1,1.3E2,1.61E2,6.4E1,3.7E1,2.6E2,6.4E1,9.6E1,1.84E2,1.2E1,4.1E1,4.07E2,6E0,9.7E1,3.3E1,1E1,4.8E1,2.49E2,5.7E1,1.3E1,1.6E1,1.27E2,3E0,1.39E2,2.2E1,1.6E1,2.1E1,4.4E1,2.16E2,3.3E1,3.1E1,8.1E1,1.5E1,6.5E1,1.19E2,5E0,7E0,3.3E1,8E0,2.99E2,1.08E2,3E0,3E0,1.2E1,8.5E1,2.6E1,7E0,4E0,6E0,7E0,4.1E1,1.13E2,1.36E2,4.7E1,1E1,4E0,9E0,6E0,1E1,8.4E1,4.3E1,5.2E1,8.7E1,6E0,1.6E1,2.7E1,1.7E1,9.7E1,1.19E2,4E0,2.9E1,3E0,7.8E1,3E0,1.2E1,4.2E1,2.3E1,3E0,1.16E2,4E0,3E0,2.5E1,8E0,3E0,5E0,9E0,2.9E2,7E0,1.01E2],"tree_param":{"num_deleted":"0","num_feature":"17","num_nodes":"107","size_leaf_vector":"1"}},{"base_weights":[2.2861081E-1,-1.9375849E1,1.114241E1,-8.732456E0,-2.5967396E1,1.4977727E1,-1.12445E1,3.4394774E0,-1.14476795E1,-2.7614754E1,-1.5262739E1,1.193282E1,3.3714367E1,1.9558254E1,-1.427765E1,-5.776965E-1,2.1826347E1,-1.195473E1,3.7997013E-1,-1.2968809E1,-2.7980936E1,-3.768893E-1,-2.1338956E0,8.6366E0,2.4358538E1,2.039243E1,3.8209534E1,2.754541E1,-1.0159998E-1,-1.5965894E1,-3.4042685E0,4.8658876E0,-6.2625136E0,7.3090005E-1,5.404851E-2,-1.4834347E1,-8.138609E0,-3.338205E-1,-1.02478884E-1,-2.9073053E1,-2.2076271E1,2.7297506E-1,-7.6972322E0,5.297303E0,1.3433135E1,3.150171E1,2.0923523E1,9.081275E-2,2.2022055E1,4.0417427E1,2.5380909E1,3.3879555E1,2.1189739E-1,-1.8172018E1,-1.1078973E1,-6.963245E0,1.4166347E0,3.3089998E-1,2.680503E-2,-1.6332416E-1,-2.519901E-2,-3.3346465E-1,-2.1490064E-1,-3.6086265E-2,-1.9351172E-1,-4.188575E-1,-5.884375E-1,-5.672032E-1,-4.0245223E-1,-2.499547E-1,7.556162E-2,2.4742675E-1,-5.8008134E-3,3.5510507E-1,1.6802523E-1,2.746994E-1,6.5678376E-1,4.468568E-1,6.0072396E-2,3.3200923E-1,5.197744E-1,7.3998404E-1,9.559039E-1,2.86333E-1,5.47272E-1,2.2308476E-1,8.6699677E-1,-3.728663E-1,-1.5452658E-1,-2.438986E-1,1.8344775E-2,1.2486276E-1,-2.230145E-1,7.450762E-2,-7.010033E-2],"categories":[],"categories_nodes":[],"categories_segments":[],"categories_sizes":[],"default_left":[0,0,0,0,0,0,0,0,0,0,0,0,0,0,0,0,0,0,0,0,0,0,0,0,0,0,0,0,0,0,0,0,0,0,0,0,0,0,0,0,0,0,0,0,0,0,0,0,0,0,0,0,0,0,0,0,0,0,0,0,0,0,0,0,0,0,0,0,0,0,0,0,0,0,0,0,0,0,0,0,0,0,0,0,0,0,0,0,0,0,0,0,0,0,0],"id":1,"left_children":[1,3,5,7,9,11,13,15,17,19,21,23,25,27,29,31,33,35,-1,37,39,-1,41,43,45,47,49,51,-1,53,55,57,59,-1,-1,61,63,-1,-1,65,67,-1,69,71,73,75,77,-1,79,81,83,85,-1,87,89,91,93,-1,-1,-1,-1,-1,-1,-1,-1,-1,-1,-1,-1,-1,-1,-1,-1,-1,-1,-1,-1,-1,-1,-1,-1,-1,-1,-1,-1,-1,-1,-1,-1,-1,-1,-1,-1,-1,-1],"loss_changes":[4.200021E5,4.9016125E4,1.08439734E5,8.964346E3,7.205625E3,6.103286E4,1.7562625E4,3.7100217E3,3.637457E3,1.6347188E3,2.7770283E3,3.779197E4,8.19175E3,3.4898467E3,3.0440898E3,1.3304749E3,2.4266953E3,2.2702695E3,0E0,2.3131628E2,1.69525E3,0E0,1.3331259E3,1.1697629E4,4.0905469E3,9.2799414E2,2.1050156E3,1.0279287E3,0E0,1.3668711E3,4.2275323E2,8.801272E2,1.8781616E2,0E0,0E0,7.402949E2,9.148701E2,0E0,0E0,2.3590625E2,1.6849219E2,0E0,6.549214E2,1.7199406E4,6.3918594E3,9.8916016E2,3.3359805E3,0E0,3.3425977E2,5.6E2,1.6711914E1,1.4425E3,0E0,3.380625E2,6.560288E2,8.448176E2,1.3809288E2,0E0,0E0,0E0,0E0,0E0,0E0,0E0,0E0,0E0,0E0,0E0,0E0,0E0,0E0,0E0,0E0,0E0,0E0,0E0,0E0,0E0,0E0,0E0,0E0,0E0,0E0,0E0,0E0,0E0,0E0,0E0,0E0,0E0,0E0,0E0,0E0,0E0,0E0],"parents":[2147483647,0,0,1,1,2,2,3,3,4,4,5,5,6,6,7,7,8,8,9,9,10,10,11,11,12,12,13,13,14,14,15,15,16,16,17,17,19,19,20,20,22,22,23,23,24,24,25,25,26,26,27,27,29,29,30,30,31,31,32,32,35,35,36,36,39,39,40,40,42,42,43,43,44,44,45,45,46,46,48,48,49,49,50,50,51,51,53,53,54,54,55,55,56,56],"right_children":[2,4,6,8,10,12,14,16,18,20,22,24,26,28,30,32,34,36,-1,38,40,-1,42,44,46,48,50,52,-1,54,56,58,60,-1,-1,62,64,-1,-1,66,68,-1,70,72,74,76,78,-1,80,82,84,86,-1,88,90,92,94,-1,-1,-1,-1,-1,-1,-1,-1,-1,-1,-1,-1,-1,-1,-1,-1,-1,-1,-1,-1,-1,-1,-1,-1,-1,-1,-1,-1,-1,-1,-1,-1,-1,-1,-1,-1,-1,-1],"split_conditions":[4E-1,2.03E1,2.13E1,1.15E1,1.7E1,1.26E0,5E0,9.8E0,1.79E1,1E1,3.2E-1,9.4E0,1.2E1,1.2E1,1.7E1,6E0,3E0,7.7E0,3.7997013E-1,2E0,3.04E-1,-3.768893E-1,5.2E0,1.3E0,2E1,1.368E0,1.39E1,1.59E1,-1.0159998E-1,8.4E0,1.8E1,1.1E1,1.13E1,7.3090005E-1,5.404851E-2,1E0,2E0,-3.338205E-1,-1.02478884E-1,3.6E0,2.05E1,2.7297506E-1,4.1E-1,1.18E1,6E0,1.97E1,1E0,9.081275E-2,4.84E0,1.6E1,1.024E1,1.42E1,2.1189739E-1,6E0,6.96E-1,3.35E-1,9.1E0,3.3089998E-1,2.680503E-2,-1.6332416E-1,-2.519901E-2,-3.3346465E-1,-2.1490064E-1,-3.6086265E-2,-1.9351172E-1,-4.188575E-1,-5.884375E-1,-5.672032E-1,-4.0245223E-1,-2.499547E-1,7.556162E-2,2.4742675E-1,-5.8008134E-3,3.5510507E-1,1.6802523E-1,2.746994E-1,6.5678376E-1,4.468568E-1,6.0072396E-2,3.3200923E-1,5.197744E-1,7.3998404E-1,9.559039E-1,2.86333E-1,5.47272E-1,2.2308476E-1,8.6699677E-1,-3.728663E-1,-1.5452658E-1,-2.438986E-1,1.8344775E-2,1.2486276E-1,-2.230145E-1,7.450762E-2,-7.010033E-2],"split_indices":[14,3,3,2,6,13,15,12,2,6,13,12,6,6,6,6,7,12,0,6,13,0,15,14,3,13,2,2,0,15,6,2,2,0,0,11,7,0,0,12,3,0,13,2,8,3,9,0,1,6,1,2,0,7,13,13,15,0,0,0,0,0,0,0,0,0,0,0,0,0,0,0,0,0,0,0,0,0,0,0,0,0,0,0,0,0,0,0,0,0,0,0,0,0,0],"split_type":[0,0,0,0,0,0,0,0,0,0,0,0,0,0,0,0,0,0,0,0,0,0,0,0,0,0,0,0,0,0,0,0,0,0,0,0,0,0,0,0,0,0,0,0,0,0,0,0,0,0,0,0,0,0,0,0,0,0,0,0,0,0,0,0,0,0,0,0,0,0,0,0,0,0,0,0,0,0,0,0,0,0,0,0,0,0,0,0,0,0,0,0,0,0,0],"sum_hessian":[1.961E3,7.01E2,1.26E3,2.69E2,4.32E2,1.076E3,1.84E2,4.9E1,2.2E2,3.73E2,5.9E1,9.27E2,1.49E2,1.6E1,1.68E2,4.1E1,8E0,2.17E2,3E0,1E1,3.63E2,4.6E1,1.3E1,7.34E2,1.93E2,3.9E1,1.1E2,1.2E1,4E0,1.45E2,2.3E1,2.1E1,2E1,4E0,4E0,1.22E2,9.5E1,6E0,4E0,3.03E2,6E1,3E0,1E1,4.34E2,3E2,6E1,1.33E2,4E0,3.5E1,9.2E1,1.8E1,8E0,4E0,9.8E1,4.7E1,1.3E1,1E1,4E0,1.7E1,1.4E1,6E0,8.2E1,4E1,1.9E1,7.6E1,1.5E1,2.88E2,1.1E1,4.9E1,7E0,3E0,1.91E2,2.43E2,1.6E2,1.4E2,5E0,5.5E1,1.23E2,1E1,1.7E1,1.8E1,6.7E1,2.5E1,4E0,1.4E1,3E0,5E0,9.3E1,5E0,4.3E1,4E0,3E0,1E1,7E0,3E0],"tree_param":{"num_deleted":"0","num_feature":"17","num_nodes":"95","size_leaf_vector":"1"}},{"base_weights":[7.050024E-1,-1.8781076E1,1.0837979E1,-8.374602E0,-2.6722633E1,1.5002566E1,-8.212811E0,-1.7464983E1,-6.707046E0,-1.3599112E1,-2.7384285E1,1.2428647E1,2.9700369E1,-1.0987483E1,7.0337486E-1,-2.7191156E-1,-4.0796217E-1,-5.472224E0,-1.3495445E1,-4.6688938E-1,4.053171E-1,-5.8518744E-1,-2.4316177E1,1.7426046E1,6.305875E0,3.509856E1,1.6931517E1,4.895118E0,-1.3576586E1,-4.47993E0,-1.227645E1,-1.5011141E1,-1.2199311E-1,-2.4611317E1,-1.6009705E-1,8.453958E0,2.4526009E1,-8.814982E0,9.576557E0,2.2132044E1,3.81559E1,8.925244E0,2.1862343E1,5.579079E-1,1.4273962E0,-5.1777945E0,-1.7153158E1,3.995806E-2,-1.0930684E-1,-1.7613278E-1,-3.3854964E-1,-1.5251818E-1,-3.2350302E-1,-5.2903557E-1,-4.1678128E-1,4.37306E-1,1.3517903E-1,4.1083136E-1,5.9968275E-1,-2.9257756E-1,2.4870923E-1,1.15046225E-1,3.9501804E-1,4.8529038E-1,1.17733344E-1,9.377365E-1,6.9954354E-1,1.8170627E-2,2.0549501E-1,3.0547318E-1,4.9031338E-1,4.6425617E-1,-4.2147316E-2,-1.7828868E-1,1.17315196E-1,-3.5309505E-1,-1.4544037E-1],"categories":[],"categories_nodes":[],"categories_segments":[],"categories_sizes":[],"default_left":[0,0,0,0,0,0,0,0,0,0,0,0,0,0,0,0,0,0,0,0,0,0,0,0,0,0,0,0,0,0,0,0,0,0,0,0,0,0,0,0,0,0,0,0,0,0,0,0,0,0,0,0,0,0,0,0,0,0,0,0,0,0,0,0,0,0,0,0,0,0,0,0,0,0,0,0,0],"id":2,"left_children":[1,3,5,7,9,11,13,15,17,19,21,23,25,27,-1,-1,-1,29,31,-1,-1,-1,33,35,37,39,41,43,45,47,49,51,-1,53,-1,55,57,59,61,63,65,67,69,-1,71,73,75,-1,-1,-1,-1,-1,-1,-1,-1,-1,-1,-1,-1,-1,-1,-1,-1,-1,-1,-1,-1,-1,-1,-1,-1,-1,-1,-1,-1,-1,-1],"loss_changes":[3.8207412E5,5.4479266E4,1.011227E5,4.2437363E3,2.8755938E3,3.915578E4,2.7946203E4,2.1525293E2,1.9760596E3,7.0742363E3,1.325875E3,2.7148125E4,1.007925E4,8.95048E3,0E0,0E0,0E0,1.3527759E3,3.1897656E2,0E0,0E0,0E0,4.752578E2,3.0999797E4,1.9965684E4,3.4249375E3,1.6936367E3,2.426833E3,5.493953E3,1.1861465E3,2.653723E2,1.2978369E2,0E0,3.9739844E2,0E0,4.802132E3,5.3110625E3,9.077803E3,1.2760234E4,6.4791797E2,7.304375E2,2.0480042E2,1.2457422E2,0E0,2.2093137E3,2.4050496E3,5.1094922E2,0E0,0E0,0E0,0E0,0E0,0E0,0E0,0E0,0E0,0E0,0E0,0E0,0E0,0E0,0E0,0E0,0E0,0E0,0E0,0E0,0E0,0E0,0E0,0E0,0E0,0E0,0E0,0E0,0E0,0E0],"parents":[2147483647,0,0,1,1,2,2,3,3,4,4,5,5,6,6,7,7,8,8,9,9,10,10,11,11,12,12,13,13,17,17,18,18,22,22,23,23,24,24,25,25,26,26,27,27,28,28,29,29,30,30,31,31,33,33,35,35,36,36,37,37,38,38,39,39,40,40,41,41,42,42,44,44,45,45,46,46],"right_children":[2,4,6,8,10,12,14,16,18,20,22,24,26,28,-1,-1,-1,30,32,-1,-1,-1,34,36,38,40,42,44,46,48,50,52,-1,54,-1,56,58,60,62,64,66,68,70,-1,72,74,76,-1,-1,-1,-1,-1,-1,-1,-1,-1,-1,-1,-1,-1,-1,-1,-1,-1,-1,-1,-1,-1,-1,-1,-1,-1,-1,-1,-1,-1,-1],"split_conditions":[4E-1,1E0,2.11E1,3E-1,2.03E1,1.8E0,1E0,4E0,2E1,1.4E1,3E-1,1E0,1.89E1,1E0,7.0337486E-1,-2.7191156E-1,-4.0796217E-1,1E0,8.82E1,-4.6688938E-1,4.053171E-1,-5.8518744E-1,6E0,5E-1,1.1E0,1.2E1,2.3E0,6E0,2.14E1,5.9E1,7.74E1,2.508E2,-1.2199311E-1,4E-1,-1.6009705E-1,5.83E1,6E-1,1.6E1,5E0,1.309E2,4E0,4.2E1,5.4E1,5.579079E-1,2.13E1,1.904E2,6E0,3.995806E-2,-1.0930684E-1,-1.7613278E-1,-3.3854964E-1,-1.5251818E-1,-3.2350302E-1,-5.2903557E-1,-4.1678128E-1,4.37306E-1,1.3517903E-1,4.1083136E-1,5.9968275E-1,-2.9257756E-1,2.4870923E-1,1.15046225E-1,3.9501804E-1,4.8529038E-1,1.17733344E-1,9.377365E-1,6.9954354E-1,1.8170627E-2,2.0549501E-1,3.0547318E-1,4.9031338E-1,4.6425617E-1,-4.2147316E-2,-1.7828868E-1,1.17315196E-1,-3.5309505E-1,-1.4544037E-1],"split_indices":[14,10,3,14,3,0,14,7,6,6,14,10,3,10,0,0,0,9,5,0,0,0,7,14,14,6,14,6,3,5,16,16,0,0,0,5,14,6,7,16,8,5,5,0,3,16,7,0,0,0,0,0,0,0,0,0,0,0,0,0,0,0,0,0,0,0,0,0,0,0,0,0,0,0,0,0,0],"split_type":[0,0,0,0,0,0,0,0,0,0,0,0,0,0,0,0,0,0,0,0,0,0,0,0,0,0,0,0,0,0,0,0,0,0,0,0,0,0,0,0,0,0,0,0,0,0,0,0,0,0,0,0,0,0,0,0,0,0,0,0,0,0,0,0,0,0,0,0,0,0,0,0,0,0,0,0,0],"sum_hessian":[1.933E3,6.61E2,1.272E3,2.87E2,3.74E2,1.044E3,2.28E2,4.3E1,2.44E2,1.9E1,3.55E2,8.9E2,1.54E2,2.15E2,1.3E1,2.1E1,2.2E1,2.08E2,3.6E1,1.5E1,4E0,2.15E2,1.4E2,4.89E2,4.01E2,1.07E2,4.7E1,3E1,1.85E2,1.83E2,2.5E1,2.9E1,7E0,1.37E2,3E0,2.17E2,2.72E2,7.1E1,3.3E2,2.2E1,8.5E1,1.9E1,2.8E1,3E0,2.7E1,5.6E1,1.29E2,2.4E1,1.59E2,1.6E1,9E0,5E0,2.4E1,8.8E1,4.9E1,2.3E1,1.94E2,1.6E2,1.12E2,5.6E1,1.5E1,2.41E2,8.9E1,1.9E1,3E0,1.9E1,6.6E1,3E0,1.6E1,1E1,1.8E1,3E0,2.4E1,4.2E1,1.4E1,1.22E2,7E0],"tree_param":{"num_deleted":"0","num_feature":"17","num_nodes":"77","size_leaf_vector":"1"}},{"base_weights":[1.1884553E-1,-1.8297394E1,9.672158E0,-8.942489E0,-2.5909554E1,6.9861026E0,2.9336176E1,-3.4446532E-1,-6.011947E0,-5.798521E-1,-2.1421316E1,1.2296636E1,-3.5311441E0,3.30285E1,1.5695163E1,-1.4241E0,-8.703254E0,-1.0159432E1,-2.3249727E1,2.1177364E1,7.178921E0,-1.3339956E1,3.938358E0,2.4753983E1,3.839399E1,7.0497913E0,4.0532938E-1,6.914667E0,-6.167251E0,-9.135423E0,1.0541984E-1,3.088098E-1,-1.4561349E1,-2.509853E1,-3.6005485E-1,1.5177105E1,2.7919186E1,3.0134506E0,1.6349098E1,1.3418395E1,-1.5086552E1,1.9035248E1,-2.6212776E-1,1.9870878E1,3.1563406E1,9.5342666E-1,7.0862836E-1,2.0494893E-1,2.3596437E0,7.802455E-2,4.473399E-1,-3.936222E-2,-2.0577917E-1,-1.9164932E-1,9.980147E-2,-4.2351314E-1,1.09407306E-1,-2.7121875E-1,-5.1141727E-1,3.3204117E-1,1.894781E-2,6.10097E-1,2.533367E-1,1.2977335E-1,-1.4889829E-1,4.0010008E-1,1.8274061E-1,4.0556688E-2,6.5589833E-1,3.18334E-1,-3.1554452E-1,2.3489432E-1,6.185514E-1,-8.412085E-2,2.0841204E-1,6.234528E-1,3.2394856E-1,7.5586945E-1,3.9454767E-1,-3.1425823E-2,1.15013346E-1],"categories":[],"categories_nodes":[],"categories_segments":[],"categories_sizes":[],"default_left":[0,0,0,0,0,0,0,0,0,0,0,0,0,0,0,0,0,0,0,0,0,0,0,0,0,0,0,0,0,0,0,0,0,0,0,0,0,0,0,0,0,0,0,0,0,0,0,0,0,0,0,0,0,0,0,0,0,0,0,0,0,0,0,0,0,0,0,0,0,0,0,0,0,0,0,0,0,0,0,0,0],"id":3,"left_children":[1,3,5,7,9,11,13,-1,15,-1,17,19,21,23,25,27,29,31,33,35,37,39,41,43,45,47,-1,49,51,53,-1,-1,55,57,-1,59,61,63,65,67,69,71,73,75,77,-1,-1,-1,79,-1,-1,-1,-1,-1,-1,-1,-1,-1,-1,-1,-1,-1,-1,-1,-1,-1,-1,-1,-1,-1,-1,-1,-1,-1,-1,-1,-1,-1,-1,-1,-1],"loss_changes":[3.5644584E5,4.9039375E4,7.024785E4,7.463164E3,4.6409375E3,6.56715E4,7.530578E3,0E0,2.8501543E3,0E0,3.0311484E3,3.5337977E4,2.899486E4,4.586578E3,1.2744053E3,3.483522E3,9.306543E2,2.9291877E3,8.588203E2,1.1096664E4,1.8931316E4,8.194629E3,1.4276956E4,1.0915781E3,3.281953E2,1.8326288E2,0E0,1.3975569E3,9.4652563E2,9.454248E2,0E0,0E0,2.9013945E3,1.7947266E2,0E0,3.0830977E3,4.8501484E3,1.2514481E4,3.8982148E3,2.3543372E3,3.6986094E3,3.8765938E3,7.4999106E3,8.556533E2,7.177129E2,0E0,0E0,0E0,1.0318111E2,0E0,0E0,0E0,0E0,0E0,0E0,0E0,0E0,0E0,0E0,0E0,0E0,0E0,0E0,0E0,0E0,0E0,0E0,0E0,0E0,0E0,0E0,0E0,0E0,0E0,0E0,0E0,0E0,0E0,0E0,0E0,0E0],"parents":[2147483647,0,0,1,1,2,2,3,3,4,4,5,5,6,6,8,8,10,10,11,11,12,12,13,13,14,14,15,15,16,16,17,17,18,18,19,19,20,20,21,21,22,22,23,23,24,24,25,25,27,27,28,28,29,29,32,32,33,33,35,35,36,36,37,37,38,38,39,39,40,40,41,41,42,42,43,43,44,44,48,48],"right_children":[2,4,6,8,10,12,14,-1,16,-1,18,20,22,24,26,28,30,32,34,36,38,40,42,44,46,48,-1,50,52,54,-1,-1,56,58,-1,60,62,64,66,68,70,72,74,76,78,-1,-1,-1,80,-1,-1,-1,-1,-1,-1,-1,-1,-1,-1,-1,-1,-1,-1,-1,-1,-1,-1,-1,-1,-1,-1,-1,-1,-1,-1,-1,-1,-1,-1,-1,-1],"split_conditions":[4E-1,1E0,2.21E1,2.07E-1,3E-1,6E0,1.42E1,-3.4446532E-1,1.16E1,-5.798521E-1,2.15E1,1.11E1,8E-1,3.23E1,2.4E0,1.6E0,1.42E1,1E1,3.16E-1,4.9E-1,1.3E0,1E0,2.15E1,4E0,1.2E1,1E0,4.0532938E-1,1.4E0,1E1,3.24E-1,1.0541984E-1,3.088098E-1,1.51E1,4E0,-3.6005485E-1,1E0,3E0,1E0,3.5E0,5.7E0,1E0,5E-1,1.56E1,1E0,1.8E0,9.5342666E-1,7.0862836E-1,2.0494893E-1,2.2E0,7.802455E-2,4.473399E-1,-3.936222E-2,-2.0577917E-1,-1.9164932E-1,9.980147E-2,-4.2351314E-1,1.09407306E-1,-2.7121875E-1,-5.1141727E-1,3.3204117E-1,1.894781E-2,6.10097E-1,2.533367E-1,1.2977335E-1,-1.4889829E-1,4.0010008E-1,1.8274061E-1,4.0556688E-2,6.5589833E-1,3.18334E-1,-3.1554452E-1,2.3489432E-1,6.185514E-1,-8.412085E-2,2.0841204E-1,6.234528E-1,3.2394856E-1,7.5586945E-1,3.9454767E-1,-3.1425823E-2,1.15013346E-1],"split_indices":[14,10,15,13,14,8,2,0,2,0,4,2,14,15,14,15,2,2,13,13,14,10,4,7,2,10,0,15,12,13,0,0,2,8,0,9,8,10,14,12,7,13,15,10,14,0,0,0,14,0,0,0,0,0,0,0,0,0,0,0,0,0,0,0,0,0,0,0,0,0,0,0,0,0,0,0,0,0,0,0,0],"split_type":[0,0,0,0,0,0,0,0,0,0,0,0,0,0,0,0,0,0,0,0,0,0,0,0,0,0,0,0,0,0,0,0,0,0,0,0,0,0,0,0,0,0,0,0,0,0,0,0,0,0,0,0,0,0,0,0,0,0,0,0,0,0,0,0,0,0,0,0,0,0,0,0,0,0,0,0,0,0,0,0,0],"sum_hessian":[2.024E3,6.91E2,1.333E3,3.11E2,3.8E2,1.174E3,1.59E2,8E1,2.31E2,2.22E2,1.58E2,7.8E2,3.94E2,1.24E2,3.5E1,8.6E1,1.45E2,2.3E1,1.35E2,2.84E2,4.96E2,1.7E2,2.24E2,5.1E1,7.3E1,1.3E1,2.2E1,3.1E1,5.5E1,1.41E2,4E0,3E0,2E1,9.7E1,3.8E1,1.52E2,1.32E2,3.42E2,1.54E2,1E1,1.6E2,4.8E1,1.76E2,3.2E1,1.9E1,1.4E1,5.9E1,7E0,6E0,2.7E1,4E0,2.8E1,2.7E1,1.37E2,4E0,1.5E1,5E0,5E0,9.2E1,1.38E2,1.4E1,1.12E2,2E1,2.57E2,8.5E1,1.01E2,5.3E1,7E0,3E0,3E0,1.57E2,3.1E1,1.7E1,1.29E2,4.7E1,6E0,2.6E1,1.1E1,8E0,3E0,3E0],"tree_param":{"num_deleted":"0","num_feature":"17","num_nodes":"81","size_leaf_vector":"1"}},{"base_weights":[-3.946477E-1,-1.9050531E1,9.707759E0,-9.938337E0,-2.5656588E1,6.710817E0,2.7222239E1,-1.2531088E1,-5.1254463E0,-5.64115E-1,-2.1943813E1,1.2009355E1,-3.889554E0,1.6739107E1,3.200387E1,-1.7654259E1,-1.1141972E1,-1.6733319E0,-1.4551856E1,4.512608E-2,-2.2395962E1,7.82146E0,1.9813967E1,1.8404074E1,-8.555464E0,1.2551642E1,5.3654313E-1,2.256231E1,3.5043964E1,-3.8124472E-1,-2.576225E-1,2.4750298E-1,-1.1856921E1,-3.6379786E0,7.55348E0,-3.2948402E-1,-1.7281768E-1,-2.4898361E1,-1.7677105E1,3.8929298E0,1.6959606E1,2.274608E1,-6.832381E-1,1.1194826E1,2.8502403E1,-1.5616143E1,-2.5479307E0,6.1064917E-1,9.535729E0,1.0467958E1,2.954129E1,3.214415E1,8.860212E-1,-2.7749154E-1,3.4368995E-1,-2.838176E-1,-2.023104E-1,7.4562594E-2,-9.783925E-2,3.8414913E-1,-1.3631696E-1,-1.8217124E-1,-5.150532E-1,-1.3608143E-1,-3.6634493E-1,1.4545417E-1,-1.6853434E-1,4.2941427E-1,1.497183E-1,3.4026965E-1,6.492668E-1,6.119718E-1,-9.67608E-2,3.3082542E-1,-1.1887985E-1,7.168359E-1,4.3325344E-1,3.28458E-1,-3.4854785E-1,-1.0918699E-1,7.517334E-2,6.913903E-2,2.6073435E-1,3.3126456E-1,3.9558817E-2,7.5266415E-1,4.3302798E-1,4.6963364E-1,7.7922684E-1],"categories":[],"categories_nodes":[],"categories_segments":[],"categories_sizes":[],"default_left":[0,0,0,0,0,0,0,0,0,0,0,0,0,0,0,0,0,0,0,0,0,0,0,0,0,0,0,0,0,0,0,0,0,0,0,0,0,0,0,0,0,0,0,0,0,0,0,0,0,0,0,0,0,0,0,0,0,0,0,0,0,0,0,0,0,0,0,0,0,0,0,0,0,0,0,0,0,0,0,0,0,0,0,0,0,0,0,0,0],"id":4,"left_children":[1,3,5,7,9,11,13,15,17,-1,19,21,23,25,27,29,31,33,35,-1,37,39,41,43,45,47,-1,49,51,-1,-1,53,55,57,59,-1,-1,61,63,65,67,69,71,73,75,77,79,-1,81,83,85,87,-1,-1,-1,-1,-1,-1,-1,-1,-1,-1,-1,-1,-1,-1,-1,-1,-1,-1,-1,-1,-1,-1,-1,-1,-1,-1,-1,-1,-1,-1,-1,-1,-1,-1,-1,-1,-1],"loss_changes":[3.7448688E5,4.175447E4,6.7469984E4,3.6134336E3,3.1946562E3,6.194378E4,8.878297E3,1.1568262E3,3.3892148E3,0E0,1.9037734E3,2.386289E4,3.8434867E4,2.2322441E3,2.8718281E3,1.0166016E1,1.2511211E3,1.4406355E3,1.7078711E2,0E0,1.5115547E3,1.7161557E4,1.5405602E4,4.3322676E3,1.2893844E4,2.1411235E3,0E0,2.5525723E3,1.1108594E3,0E0,0E0,2.6309456E3,4.3685938E2,6.1887445E2,2.4778306E3,0E0,0E0,1.1883203E3,2.9491992E2,1.4092951E4,5.98759E3,1.1915734E4,4.431889E3,3.674079E3,5.172578E2,8.410707E3,3.0688103E3,0E0,8.029033E2,6.880161E2,5.1406445E2,3.5607188E3,0E0,0E0,0E0,0E0,0E0,0E0,0E0,0E0,0E0,0E0,0E0,0E0,0E0,0E0,0E0,0E0,0E0,0E0,0E0,0E0,0E0,0E0,0E0,0E0,0E0,0E0,0E0,0E0,0E0,0E0,0E0,0E0,0E0,0E0,0E0,0E0,0E0],"parents":[2147483647,0,0,1,1,2,2,3,3,4,4,5,5,6,6,7,7,8,8,10,10,11,11,12,12,13,13,14,14,15,15,16,16,17,17,18,18,20,20,21,21,22,22,23,23,24,24,25,25,27,27,28,28,31,31,32,32,33,33,34,34,37,37,38,38,39,39,40,40,41,41,42,42,43,43,44,44,45,45,46,46,48,48,49,49,50,50,51,51],"right_children":[2,4,6,8,10,12,14,16,18,-1,20,22,24,26,28,30,32,34,36,-1,38,40,42,44,46,48,-1,50,52,-1,-1,54,56,58,60,-1,-1,62,64,66,68,70,72,74,76,78,80,-1,82,84,86,88,-1,-1,-1,-1,-1,-1,-1,-1,-1,-1,-1,-1,-1,-1,-1,-1,-1,-1,-1,-1,-1,-1,-1,-1,-1,-1,-1,-1,-1,-1,-1,-1,-1,-1,-1,-1,-1],"split_conditions":[4E-1,1E0,9.9E-1,8.3E0,3E-1,6E0,1.2E1,3E-1,2.15E1,-5.64115E-1,2.4E0,9.1E0,2.15E1,2.4E0,1.326E0,1.98E-1,5.7E0,9.3E0,3.32E-1,4.512608E-2,3E-1,1.3E0,2.15E1,4.7E0,7E-1,1E0,5.3654313E-1,1.6E1,1.7E1,-3.8124472E-1,-2.576225E-1,7.5E1,7.38E1,5.75E1,6E0,-3.2948402E-1,-1.7281768E-1,1E0,2.15E1,1E0,3.5E0,5.3E-1,1.6E1,8.23E1,1.5E1,1E0,1.1E0,6.1064917E-1,1.9E0,1.5E1,8.1E0,2.64E0,8.860212E-1,-2.7749154E-1,3.4368995E-1,-2.838176E-1,-2.023104E-1,7.4562594E-2,-9.783925E-2,3.8414913E-1,-1.3631696E-1,-1.8217124E-1,-5.150532E-1,-1.3608143E-1,-3.6634493E-1,1.4545417E-1,-1.6853434E-1,4.2941427E-1,1.497183E-1,3.4026965E-1,6.492668E-1,6.119718E-1,-9.67608E-2,3.3082542E-1,-1.1887985E-1,7.168359E-1,4.3325344E-1,3.28458E-1,-3.4854785E-1,-1.0918699E-1,7.517334E-2,6.913903E-2,2.6073435E-1,3.3126456E-1,3.9558817E-2,7.5266415E-1,4.3302798E-1,4.6963364E-1,7.7922684E-1],"split_indices":[14,10,13,12,14,8,6,14,4,0,12,12,4,0,13,13,12,12,13,0,13,14,4,12,14,7,0,6,6,0,0,5,5,5,6,0,0,7,4,10,14,13,6,5,6,10,0,0,14,6,12,13,0,0,0,0,0,0,0,0,0,0,0,0,0,0,0,0,0,0,0,0,0,0,0,0,0,0,0,0,0,0,0,0,0,0,0,0,0],"split_type":[0,0,0,0,0,0,0,0,0,0,0,0,0,0,0,0,0,0,0,0,0,0,0,0,0,0,0,0,0,0,0,0,0,0,0,0,0,0,0,0,0,0,0,0,0,0,0,0,0,0,0,0,0,0,0,0,0,0,0,0,0,0,0,0,0,0,0,0,0,0,0,0,0,0,0,0,0,0,0,0,0,0,0,0,0,0,0,0,0],"sum_hessian":[1.985E3,6.97E2,1.288E3,2.94E2,4.03E2,1.101E3,1.87E2,1.9E2,1.04E2,2.35E2,1.68E2,7.34E2,3.67E2,6E1,1.27E2,3.8E1,1.52E2,7.7E1,2.7E1,3E0,1.65E2,4.79E2,2.55E2,6.3E1,3.04E2,4.4E1,1.6E1,3.3E1,9.4E1,2.7E1,1.1E1,9E0,1.43E2,6.4E1,1.3E1,1.9E1,8E0,1.05E2,6E1,3.36E2,1.43E2,2.23E2,3.2E1,3.8E1,2.5E1,1.39E2,1.65E2,5E0,3.9E1,1.3E1,2E1,7.5E1,1.9E1,5E0,4E0,5.8E1,8.5E1,9E0,5.5E1,7E0,6E0,6E0,9.9E1,4E0,5.6E1,2.64E2,7.2E1,9.6E1,4.7E1,1.42E2,8.1E1,3E0,2.9E1,2.9E1,9E0,1E1,1.5E1,7E0,1.32E2,1.13E2,5.2E1,1.5E1,2.4E1,7E0,6E0,8E0,1.2E1,3.5E1,4E1],"tree_param":{"num_deleted":"0","num_feature":"17","num_nodes":"89","size_leaf_vector":"1"}},{"base_weights":[5.3273976E-2,-1.8017414E1,9.89234E0,-8.269311E0,-2.391816E1,1.4198017E1,-8.489945E0,-1.0195538E1,7.273396E-1,-2.556071E1,-1.3541389E1,5.514871E0,1.9108625E1,-1.120497E1,2.6511759E1,-1.0640666E1,1.4003241E0,3.7389762E0,-1.1070777E1,-2.646098E1,-2.0829252E1,-2.1052632E0,-1.5192941E1,2.0708873E0,1.1748242E1,1.642084E1,3.033887E1,6.1554515E-1,-1.2088998E1,1.9269032E1,3.313154E1,-4.1432917E-1,-1.00909195E1,-5.2508943E-2,1.0372061E-1,-2.1313255E-1,5.6943774E0,-3.0585316E-1,-1.729582E-2,-1.6920555E1,-5.397014E-1,-5.246019E-1,-3.7360793E-1,1.7623597E-1,-1.8131521E-1,-1.3176769E1,-4.1045302E-1,-4.8365617E0,9.132857E0,1.0471483E1,2.5170664E1,1.2373598E1,2.5920378E1,2.140293E1,3.476242E1,-2.953577E0,-1.5622195E1,2.460756E-1,5.025315E-1,3.8012293E-1,8.4910786E-1,-1.4673133E-1,-2.364219E-1,-5.5748843E-2,1.663631E-1,-1.0273836E-1,-3.759286E-1,-2.3164575E-1,-3.6961064E-1,-2.0441858E-1,1.5925564E-2,2.5985047E-1,-7.3716335E-2,2.950137E-1,1.5755095E-1,1.9162819E-1,6.536293E-1,1.6515753E-1,4.0030757E-1,3.9785543E-1,6.090447E-1,3.217016E-1,5.340998E-1,7.528949E-1,4.4182834E-1,4.0475917E-1,-1.6305073E-1,-3.368476E-1,-1.10834464E-1],"categories":[],"categories_nodes":[],"categories_segments":[],"categories_sizes":[],"default_left":[0,0,0,0,0,0,0,0,0,0,0,0,0,0,0,0,0,0,0,0,0,0,0,0,0,0,0,0,0,0,0,0,0,0,0,0,0,0,0,0,0,0,0,0,0,0,0,0,0,0,0,0,0,0,0,0,0,0,0,0,0,0,0,0,0,0,0,0,0,0,0,0,0,0,0,0,0,0,0,0,0,0,0,0,0,0,0,0,0],"id":5,"left_children":[1,3,5,7,9,11,13,15,17,19,21,23,25,27,29,31,33,35,37,39,41,43,45,47,49,51,53,-1,55,57,59,-1,61,-1,-1,-1,63,-1,-1,65,-1,-1,-1,-1,-1,67,-1,69,71,73,75,77,79,81,83,85,87,-1,-1,-1,-1,-1,-1,-1,-1,-1,-1,-1,-1,-1,-1,-1,-1,-1,-1,-1,-1,-1,-1,-1,-1,-1,-1,-1,-1,-1,-1,-1,-1],"loss_changes":[3.5506278E5,4.0290625E4,1.0246029E5,4.6363105E3,7.1114844E3,4.457592E4,2.3671506E4,1.1523105E3,1.7454457E3,1.0452656E3,1.1355713E3,8.1306064E3,1.968589E4,8.867309E3,2.141211E2,9.5908594E2,1.5129129E2,1.1575085E3,4.144281E2,1.099625E3,2.5539648E2,7.6383014E2,3.030996E2,1.2044959E4,2.0428184E3,2.0509844E4,4.3044062E3,0E0,7.2125234E3,1.3215381E2,2.3441895E2,0E0,8.768418E2,0E0,0E0,0E0,8.031968E2,0E0,0E0,3.18646E2,0E0,0E0,0E0,0E0,0E0,1.3512402E2,0E0,3.8011838E3,6.085797E3,1.2667715E3,9.663784E2,1.184352E4,3.7820625E3,8.3069336E2,2.2242734E3,7.879172E3,1.8947969E3,0E0,0E0,0E0,0E0,0E0,0E0,0E0,0E0,0E0,0E0,0E0,0E0,0E0,0E0,0E0,0E0,0E0,0E0,0E0,0E0,0E0,0E0,0E0,0E0,0E0,0E0,0E0,0E0,0E0,0E0,0E0,0E0],"parents":[2147483647,0,0,1,1,2,2,3,3,4,4,5,5,6,6,7,7,8,8,9,9,10,10,11,11,12,12,13,13,14,14,15,15,16,16,17,17,18,18,19,19,20,20,21,21,22,22,23,23,24,24,25,25,26,26,28,28,29,29,30,30,32,32,36,36,39,39,45,45,47,47,48,48,49,49,50,50,51,51,52,52,53,53,54,54,55,55,56,56],"right_children":[2,4,6,8,10,12,14,16,18,20,22,24,26,28,30,32,34,36,38,40,42,44,46,48,50,52,54,-1,56,58,60,-1,62,-1,-1,-1,64,-1,-1,66,-1,-1,-1,-1,-1,68,-1,70,72,74,76,78,80,82,84,86,88,-1,-1,-1,-1,-1,-1,-1,-1,-1,-1,-1,-1,-1,-1,-1,-1,-1,-1,-1,-1,-1,-1,-1,-1,-1,-1,-1,-1,-1,-1,-1,-1],"split_conditions":[4E-1,2.03E1,2.11E1,8.8E0,1.7E1,4E-1,1E0,3E0,1.8E1,3E-1,9.5E0,8.3E0,1.428E0,7E0,1.71E-1,3E-1,4.97E1,1.99E1,2E1,1.1E1,2.05E1,1.8E1,2.18E1,1.2E0,2.03E1,9.5E0,1.2E1,6.1554515E-1,2.14E1,4E-1,1.1E1,-4.1432917E-1,1.26E1,-5.2508943E-2,1.0372061E-1,-2.1313255E-1,7.18E1,-3.0585316E-1,-1.729582E-2,1.33E1,-5.397014E-1,-5.246019E-1,-3.7360793E-1,1.7623597E-1,-1.8131521E-1,7E0,-4.1045302E-1,7.2E0,3.6E0,1.11E1,6.65E1,1.4E1,5.3E-1,1.935E0,1.38E1,4E0,1.7E1,2.460756E-1,5.025315E-1,3.8012293E-1,8.4910786E-1,-1.4673133E-1,-2.364219E-1,-5.5748843E-2,1.663631E-1,-1.0273836E-1,-3.759286E-1,-2.3164575E-1,-3.6961064E-1,-2.0441858E-1,1.5925564E-2,2.5985047E-1,-7.3716335E-2,2.950137E-1,1.5755095E-1,1.9162819E-1,6.536293E-1,1.6515753E-1,4.0030757E-1,3.9785543E-1,6.090447E-1,3.217016E-1,5.340998E-1,7.528949E-1,4.4182834E-1,4.0475917E-1,-1.6305073E-1,-3.368476E-1,-1.10834464E-1],"split_indices":[14,3,3,12,6,13,14,8,6,13,2,12,13,6,13,14,5,3,6,6,3,6,3,14,3,12,6,0,3,0,6,0,2,0,0,0,5,0,0,2,0,0,0,0,0,8,0,12,14,2,5,6,13,13,2,8,6,0,0,0,0,0,0,0,0,0,0,0,0,0,0,0,0,0,0,0,0,0,0,0,0,0,0,0,0,0,0,0,0],"split_type":[0,0,0,0,0,0,0,0,0,0,0,0,0,0,0,0,0,0,0,0,0,0,0,0,0,0,0,0,0,0,0,0,0,0,0,0,0,0,0,0,0,0,0,0,0,0,0,0,0,0,0,0,0,0,0,0,0,0,0,0,0,0,0,0,0,0,0,0,0,0,0,0,0,0,0,0,0,0,0,0,0,0,0,0,0,0,0,0,0],"sum_hessian":[1.995E3,7.03E2,1.292E3,2.66E2,4.37E2,1.047E3,2.45E2,2.19E2,4.7E1,3.76E2,6.1E1,3.79E2,6.68E2,2.28E2,1.7E1,2.11E2,8E0,3.8E1,9E0,3.12E2,6.4E1,8E0,5.3E1,2.45E2,1.34E2,5.41E2,1.27E2,4E0,2.24E2,1E1,7E0,9E0,2.02E2,4E0,4E0,4E0,3.4E1,6E0,3E0,1.8E1,2.94E2,1.5E1,4.9E1,3E0,5E0,4.1E1,1.2E1,1.24E2,1.21E2,1.24E2,1E1,3.81E2,1.6E2,4.4E1,8.3E1,6.3E1,1.61E2,6E0,4E0,4E0,3E0,8E1,1.22E2,8E0,2.6E1,3E0,1.5E1,3.4E1,7E0,6.3E1,6.1E1,9.3E1,2.8E1,4.5E1,7.9E1,4E0,6E0,2.49E2,1.32E2,7.1E1,8.9E1,2.4E1,2E1,6.6E1,1.7E1,1.1E1,5.2E1,1.43E2,1.8E1],"tree_param":{"num_deleted":"0","num_feature":"17","num_nodes":"89","size_leaf_vector":"1"}},{"base_weights":[2.2935149E-1,-1.772416E1,9.336183E0,-8.8971195E0,-2.4484577E1,6.8043694E0,2.9490688E1,-1.1907532E1,-1.7336575E0,-5.4403436E-1,-2.072612E1,1.2208368E1,-3.2648447E0,1.8850304E1,3.4042835E1,-1.5102647E1,-9.931282E0,-4.480261E0,9.032782E0,3.1768132E-2,-2.1302364E1,2.0759626E1,7.4981914E0,-1.3113671E1,4.802928E0,1.233247E1,5.339373E-1,3.619054E1,3.8606602E-1,-4.777346E-2,-1.5589678E1,-1.0299833E1,-2.0079794E0,-1.1733687E-1,-7.0511403E0,1.3020039E1,-1.6255255E-1,2.23669E-2,-2.189328E1,2.2826876E1,7.17506E0,3.2366576E0,1.6627533E1,1.7179512E1,-1.4770918E1,2.9696965E-1,1.8392393E1,4.9962133E-2,1.4444912E1,3.362724E1,9.090195E-1,-2.688959E-1,-3.5057113E-1,-1.5949513E-1,-2.335777E-1,3.7063546E-2,-1.0834282E-1,1.148932E-1,-6.757188E-2,-4.8179932E-2,-2.4982527E-1,3.2872322E-1,-8.666709E-3,-4.7029385E-1,-3.5394832E-1,3.497174E-1,6.000783E-1,-4.4899438E-2,3.6802542E-1,-7.730324E-2,1.2787071E-1,4.4013432E-1,1.9749787E-1,3.0532965E-2,6.497409E-1,-3.4715685E-1,-1.849948E-1,-4.9569014E-2,1.567353E-1,4.660483E-1,6.8733287E-3,3.5834733E-1,1.220689E-1,6.027287E-1,8.2373005E-1],"categories":[],"categories_nodes":[],"categories_segments":[],"categories_sizes":[],"default_left":[0,0,0,0,0,0,0,0,0,0,0,0,0,0,0,0,0,0,0,0,0,0,0,0,0,0,0,0,0,0,0,0,0,0,0,0,0,0,0,0,0,0,0,0,0,0,0,0,0,0,0,0,0,0,0,0,0,0,0,0,0,0,0,0,0,0,0,0,0,0,0,0,0,0,0,0,0,0,0,0,0,0,0,0,0],"id":6,"left_children":[1,3,5,7,9,11,13,15,17,-1,19,21,23,25,27,29,31,33,35,-1,37,39,41,43,45,47,-1,49,-1,-1,51,53,55,57,59,61,-1,-1,63,65,67,69,71,73,75,77,79,-1,81,83,-1,-1,-1,-1,-1,-1,-1,-1,-1,-1,-1,-1,-1,-1,-1,-1,-1,-1,-1,-1,-1,-1,-1,-1,-1,-1,-1,-1,-1,-1,-1,-1,-1,-1,-1],"loss_changes":[3.230755E5,3.9459016E4,6.668905E4,6.2304688E3,3.2664375E3,6.3488395E4,6.4194297E3,1.1331328E3,2.612248E3,0E0,2.120875E3,3.0409648E4,3.248355E4,2.0155166E3,2.4875703E3,4.2976367E2,3.5355566E2,7.8289746E2,1.3384138E3,0E0,2.1219453E3,7.384453E3,1.904456E4,9.490676E3,1.3768352E4,5.214385E2,0E0,5.209375E2,0E0,0E0,6.1720703E1,2.973203E2,1.02894875E2,5.3510767E2,1.0780974E3,6.996985E2,0E0,0E0,6.233047E2,8.397359E3,3.9573389E3,7.5581973E3,5.442801E3,2.339668E3,2.333629E3,3.5779324E3,4.949967E3,0E0,5.230757E2,6.444531E2,0E0,0E0,0E0,0E0,0E0,0E0,0E0,0E0,0E0,0E0,0E0,0E0,0E0,0E0,0E0,0E0,0E0,0E0,0E0,0E0,0E0,0E0,0E0,0E0,0E0,0E0,0E0,0E0,0E0,0E0,0E0,0E0,0E0,0E0,0E0],"parents":[2147483647,0,0,1,1,2,2,3,3,4,4,5,5,6,6,7,7,8,8,10,10,11,11,12,12,13,13,14,14,15,15,16,16,17,17,18,18,20,20,21,21,22,22,23,23,24,24,25,25,27,27,30,30,31,31,32,32,33,33,34,34,35,35,38,38,39,39,40,40,41,41,42,42,43,43,44,44,45,45,46,46,48,48,49,49],"right_children":[2,4,6,8,10,12,14,16,18,-1,20,22,24,26,28,30,32,34,36,-1,38,40,42,44,46,48,-1,50,-1,-1,52,54,56,58,60,62,-1,-1,64,66,68,70,72,74,76,78,80,-1,82,84,-1,-1,-1,-1,-1,-1,-1,-1,-1,-1,-1,-1,-1,-1,-1,-1,-1,-1,-1,-1,-1,-1,-1,-1,-1,-1,-1,-1,-1,-1,-1,-1,-1,-1,-1],"split_conditions":[4E-1,1E0,1.326E0,8.5E0,3E-1,6E0,1.2E1,2.07E-1,8.82E1,-5.4403436E-1,2.4E0,1.11E1,8E-1,1.935E0,1.41E1,1E0,3E0,4E0,1.8E1,3.1768132E-2,9.4E0,3E0,1.3E0,1E0,7E0,1.8E0,5.339373E-1,5.88E1,3.8606602E-1,-4.777346E-2,4E0,5E0,1.24E1,6.63E1,1.11E1,1.14E1,-1.6255255E-1,2.23669E-2,5.4E0,5.1E-1,7E-1,3.28E-1,3.2E0,5.7E0,8.5E0,1.6E1,2.7E0,4.9962133E-2,1.1E1,1.6E1,9.090195E-1,-2.688959E-1,-3.5057113E-1,-1.5949513E-1,-2.335777E-1,3.7063546E-2,-1.0834282E-1,1.148932E-1,-6.757188E-2,-4.8179932E-2,-2.4982527E-1,3.2872322E-1,-8.666709E-3,-4.7029385E-1,-3.5394832E-1,3.497174E-1,6.000783E-1,-4.4899438E-2,3.6802542E-1,-7.730324E-2,1.2787071E-1,4.4013432E-1,1.9749787E-1,3.0532965E-2,6.497409E-1,-3.4715685E-1,-1.849948E-1,-4.9569014E-2,1.567353E-1,4.660483E-1,6.8733287E-3,3.5834733E-1,1.220689E-1,6.027287E-1,8.2373005E-1],"split_indices":[14,10,13,12,14,8,6,13,5,0,12,2,14,13,2,7,8,7,6,0,2,8,14,10,8,0,0,15,0,0,7,6,2,5,2,2,0,0,15,13,14,13,14,12,15,15,14,0,6,6,0,0,0,0,0,0,0,0,0,0,0,0,0,0,0,0,0,0,0,0,0,0,0,0,0,0,0,0,0,0,0,0,0,0,0],"split_type":[0,0,0,0,0,0,0,0,0,0,0,0,0,0,0,0,0,0,0,0,0,0,0,0,0,0,0,0,0,0,0,0,0,0,0,0,0,0,0,0,0,0,0,0,0,0,0,0,0,0,0,0,0,0,0,0,0,0,0,0,0,0,0,0,0,0,0,0,0,0,0,0,0,0,0,0,0,0,0,0,0,0,0,0,0],"sum_hessian":[1.974E3,6.64E2,1.31E3,2.89E2,3.75E2,1.165E3,1.45E2,2.03E2,8.6E1,2.14E2,1.61E2,7.58E2,4.07E2,4.5E1,1E2,7.5E1,1.28E2,6.9E1,1.7E1,4E0,1.57E2,2.68E2,4.9E2,1.83E2,2.24E2,2.6E1,1.9E1,8.6E1,1.4E1,3E0,7.2E1,1.22E2,6E0,2.6E1,4.3E1,1.4E1,3E0,4E0,1.53E2,2.32E2,3.6E1,3.35E2,1.55E2,9E0,1.74E2,1.69E2,5.5E1,5E0,2.1E1,7.1E1,1.5E1,3.8E1,3.4E1,4.8E1,7.4E1,3E0,3E0,9E0,1.7E1,2.4E1,1.9E1,1.1E1,3E0,1.07E2,4.6E1,1.35E2,9.7E1,2E1,1.6E1,1.03E2,2.32E2,8.5E1,7E1,5E0,4E0,1.17E2,5.7E1,1.24E2,4.5E1,4.3E1,1.2E1,1.4E1,7E0,5.2E1,1.9E1],"tree_param":{"num_deleted":"0","num_feature":"17","num_nodes":"85","size_leaf_vector":"1"}},{"base_weights":[-2.8072008E-1,-1.7130373E1,9.390834E0,-8.44744E0,-2.3921228E1,6.9786596E0,2.8893927E1,-2.8438723E0,-1.0483013E1,-5.276567E-1,-1.9780134E1,1.3980722E1,9.7498465E-1,3.324844E1,1.5264139E1,6.5224886E0,-7.5616174E0,-1.48329525E1,-8.69074E0,-6.587484E0,-2.1534615E1,9.721992E0,2.5944365E1,-1.5127894E1,8.45221E0,2.415845E1,3.685008E1,1.0967006E1,5.063997E-1,3.9720047E0,1.2010061E1,-2.7418544E0,-1.1536359E1,-2.420105E-3,-1.5507027E1,-8.96285E0,9.721168E-2,-1.3565473E1,3.403915E-1,-2.3629065E1,-3.4402713E-1,2.2674E0,1.2379477E1,2.6833195E1,-6.0502976E-2,-1.7358183E1,-1.0140806E1,1.4251445E-2,1.15000725E1,1.7968857E1,6.9771844E-1,8.990055E-1,6.728424E-1,3.5838876E0,1.3361902E1,-9.100916E-3,1.4174548E-1,3.6458567E-1,1.16578065E-1,-2.1482939E-1,8.5331695E-3,2.2353181E-1,-2.855654E-1,-3.237357E-1,-8.1451125E-2,-1.8452114E-1,8.170269E-2,9.192478E-2,-3.6251155E-1,-4.7956514E-1,-2.5574562E-1,8.817085E-3,3.874569E-1,2.710494E-1,6.073825E-4,5.798387E-1,2.9032686E-1,-8.245345E-2,-3.5675356E-1,-2.3278347E-1,2.9639828E-1,-6.614942E-2,3.5480848E-1,1.8748122E-1,3.421215E-1,9.202815E-2,4.4808686E-1,1.5195426E-1,-6.079013E-3,3.1023133E-1,1.4250313E-1],"categories":[],"categories_nodes":[],"categories_segments":[],"categories_sizes":[],"default_left":[0,0,0,0,0,0,0,0,0,0,0,0,0,0,0,0,0,0,0,0,0,0,0,0,0,0,0,0,0,0,0,0,0,0,0,0,0,0,0,0,0,0,0,0,0,0,0,0,0,0,0,0,0,0,0,0,0,0,0,0,0,0,0,0,0,0,0,0,0,0,0,0,0,0,0,0,0,0,0,0,0,0,0,0,0,0,0,0,0,0,0],"id":7,"left_children":[1,3,5,7,9,11,13,15,17,-1,19,21,23,25,27,29,31,33,35,37,39,41,43,45,47,49,51,53,-1,55,57,59,61,-1,63,65,-1,67,-1,69,-1,71,73,75,-1,77,79,81,83,85,-1,-1,-1,87,89,-1,-1,-1,-1,-1,-1,-1,-1,-1,-1,-1,-1,-1,-1,-1,-1,-1,-1,-1,-1,-1,-1,-1,-1,-1,-1,-1,-1,-1,-1,-1,-1,-1,-1,-1,-1],"loss_changes":[3.293463E5,4.324833E4,6.0196758E4,3.674625E3,3.6789219E3,4.807497E4,7.851297E3,3.9380815E3,1.7219023E3,0E0,3.509621E3,2.6642203E4,7.441633E4,2.567875E3,1.270665E3,3.6897876E2,1.0957949E3,6.693496E2,6.749385E2,3.5247837E3,8.469219E2,7.7148945E3,3.6392969E3,1.9985156E3,1.0850416E4,1.5537246E3,3.9496094E2,4.2613184E2,0E0,3.0796347E2,2.3490942E2,7.1635864E2,2.1530635E3,0E0,4.3525195E2,6.156826E2,0E0,1.4111243E3,0E0,3.0546875E1,0E0,3.23686E3,4.168676E3,3.1333438E3,0E0,7.724844E2,2.5280767E3,6.715164E3,3.5290625E3,1.2552036E3,0E0,0E0,0E0,1.2860895E2,1.5308862E2,0E0,0E0,0E0,0E0,0E0,0E0,0E0,0E0,0E0,0E0,0E0,0E0,0E0,0E0,0E0,0E0,0E0,0E0,0E0,0E0,0E0,0E0,0E0,0E0,0E0,0E0,0E0,0E0,0E0,0E0,0E0,0E0,0E0,0E0,0E0,0E0],"parents":[2147483647,0,0,1,1,2,2,3,3,4,4,5,5,6,6,7,7,8,8,10,10,11,11,12,12,13,13,14,14,15,15,16,16,17,17,18,18,19,19,20,20,21,21,22,22,23,23,24,24,25,25,26,26,27,27,29,29,30,30,31,31,32,32,34,34,35,35,37,37,39,39,41,41,42,42,43,43,45,45,46,46,47,47,48,48,49,49,53,53,54,54],"right_children":[2,4,6,8,10,12,14,16,18,-1,20,22,24,26,28,30,32,34,36,38,40,42,44,46,48,50,52,54,-1,56,58,60,62,-1,64,66,-1,68,-1,70,-1,72,74,76,-1,78,80,82,84,86,-1,-1,-1,88,90,-1,-1,-1,-1,-1,-1,-1,-1,-1,-1,-1,-1,-1,-1,-1,-1,-1,-1,-1,-1,-1,-1,-1,-1,-1,-1,-1,-1,-1,-1,-1,-1,-1,-1,-1,-1],"split_conditions":[4E-1,1E0,2.38E1,1.16E1,3E-1,1E0,1.39E1,6E0,1.95E-1,-5.276567E-1,2.15E1,4.9E-1,8E-1,3.23E1,3.3E0,2.72E-1,5E0,1E0,1.46E1,1.905E2,2.96E-1,3.36E-1,6E0,6E-1,1.3E0,5E0,1.19E1,2.8E1,5.063997E-1,2.22E1,2E0,9E0,1.5E2,-2.420105E-3,1.59E1,3.28E-1,9.721168E-2,2E0,3.403915E-1,5.7E0,-3.4402713E-1,2.15E1,1E0,1.1E1,-6.0502976E-2,2.05E1,1.63E1,1.6E1,5E0,1.7E0,6.9771844E-1,8.990055E-1,6.728424E-1,1.59E1,1.69E1,-9.100916E-3,1.4174548E-1,3.6458567E-1,1.16578065E-1,-2.1482939E-1,8.5331695E-3,2.2353181E-1,-2.855654E-1,-3.237357E-1,-8.1451125E-2,-1.8452114E-1,8.170269E-2,9.192478E-2,-3.6251155E-1,-4.7956514E-1,-2.5574562E-1,8.817085E-3,3.874569E-1,2.710494E-1,6.073825E-4,5.798387E-1,2.9032686E-1,-8.245345E-2,-3.5675356E-1,-2.3278347E-1,2.9639828E-1,-6.614942E-2,3.5480848E-1,1.8748122E-1,3.421215E-1,9.202815E-2,4.4808686E-1,1.5195426E-1,-6.079013E-3,3.1023133E-1,1.4250313E-1],"split_indices":[14,10,15,2,14,10,2,6,13,0,4,13,14,15,14,13,7,7,2,16,13,13,7,14,14,7,2,15,0,16,6,6,16,0,2,13,0,7,0,15,0,4,9,2,0,4,2,6,7,14,0,0,0,2,2,0,0,0,0,0,0,0,0,0,0,0,0,0,0,0,0,0,0,0,0,0,0,0,0,0,0,0,0,0,0,0,0,0,0,0,0],"split_type":[0,0,0,0,0,0,0,0,0,0,0,0,0,0,0,0,0,0,0,0,0,0,0,0,0,0,0,0,0,0,0,0,0,0,0,0,0,0,0,0,0,0,0,0,0,0,0,0,0,0,0,0,0,0,0,0,0,0,0,0,0,0,0,0,0,0,0,0,0,0,0,0,0,0,0,0,0,0,0,0,0,0,0,0,0,0,0,0,0,0,0],"sum_hessian":[2.019E3,7.36E2,1.283E3,3.24E2,4.12E2,1.143E3,1.4E2,8.7E1,2.37E2,2.55E2,1.57E2,5.27E2,6.16E2,1.05E2,3.5E1,2.9E1,5.8E1,6.7E1,1.7E2,1.9E1,1.38E2,3.9E2,1.37E2,1.95E2,4.21E2,3.2E1,7.3E1,2.6E1,9E0,2.1E1,8E0,2.7E1,3.1E1,3E0,6.4E1,1.67E2,3E0,1.5E1,4E0,9E1,4.8E1,1.03E2,2.87E2,1.33E2,4E0,1.33E2,6.2E1,1.12E2,3.09E2,2.2E1,1E1,1.7E1,5.6E1,7E0,1.9E1,9E0,1.2E1,3E0,5E0,7E0,2E1,3E0,2.8E1,6E1,4E0,1.64E2,3E0,3E0,1.2E1,8.6E1,4E0,9.4E1,9E0,2.62E2,2.5E1,1.12E2,2.1E1,5E0,1.28E2,5.9E1,3E0,9.5E1,1.7E1,2.26E2,8.3E1,6E0,1.6E1,3E0,4E0,1.3E1,6E0],"tree_param":{"num_deleted":"0","num_feature":"17","num_nodes":"91","size_leaf_vector":"1"}},{"base_weights":[4.1196683E-1,-1.6595564E1,9.436746E0,-7.61395E0,-2.35506E1,1.3330972E1,-7.726724E0,-7.2560567E-1,-1.0244397E1,-5.187912E-1,-2.0206896E1,1.0853946E1,3.049259E1,2.313635E1,-1.0498246E1,3.9100924E0,-8.387055E0,-1.4880187E1,-7.8384857E0,-2.064012E1,4.680678E-2,2.0135578E1,7.4361157E0,2.7439245E1,9.0631086E-1,1.2623558E1,3.2366787E1,2.1277692E0,-1.3578734E1,-2.4267145E-1,5.4714847E0,-1.0196323E1,1.3553804E-1,-3.2580107E-1,-1.1098298E1,-8.190202E0,7.2152205E-2,-2.2115389E1,-3.261704E-1,2.1454878E1,-1.6865853E0,3.9006815E0,1.20471945E1,1.8905107E1,3.377365E1,-8.269427E-3,4.0321854E-1,8.1488144E-1,3.1601375E-1,-5.5864797E0,1.907162E1,-1.4064806E1,2.1820167E-1,1.8218355E-1,5.714614E-2,-2.2651729E-1,-5.104469E-3,-4.065409E-2,-2.4693005E-1,-1.3777609E-1,-2.3858081E-1,-2.1350901E-1,-4.5262277E-1,3.0494183E-1,5.495516E-1,-2.0517173E-1,7.210548E-2,1.407985E-1,-8.312189E-2,1.4503302E-1,3.3074597E-1,2.625459E-1,4.2464194E-1,5.794904E-1,7.896217E-1,-1.9391447E-1,1.6673654E-2,2.3759551E-1,5.3294903E-1,-3.1790566E-1,-1.6919528E-1],"categories":[],"categories_nodes":[],"categories_segments":[],"categories_sizes":[],"default_left":[0,0,0,0,0,0,0,0,0,0,0,0,0,0,0,0,0,0,0,0,0,0,0,0,0,0,0,0,0,0,0,0,0,0,0,0,0,0,0,0,0,0,0,0,0,0,0,0,0,0,0,0,0,0,0,0,0,0,0,0,0,0,0,0,0,0,0,0,0,0,0,0,0,0,0,0,0,0,0,0,0],"id":8,"left_children":[1,3,5,7,9,11,13,15,17,-1,19,21,23,25,27,29,31,33,35,37,-1,39,41,43,-1,45,47,49,51,-1,53,55,-1,-1,57,59,-1,61,-1,63,65,67,69,71,73,-1,-1,-1,-1,75,77,79,-1,-1,-1,-1,-1,-1,-1,-1,-1,-1,-1,-1,-1,-1,-1,-1,-1,-1,-1,-1,-1,-1,-1,-1,-1,-1,-1,-1,-1],"loss_changes":[3.0283588E5,4.2542188E4,8.625889E4,5.426199E3,2.5419844E3,4.433853E4,2.068387E4,3.0170476E3,2.299084E3,0E0,1.6636797E3,2.902996E4,4.716289E3,1.5231719E3,8.587926E3,1.3927305E3,9.477246E2,2.0296387E2,6.142012E2,6.668672E2,0E0,7.1512734E3,1.0937477E4,5.405539E3,0E0,1.0931993E3,7.326963E2,5.8604404E3,2.2609668E3,0E0,4.375481E2,3.204309E2,0E0,0E0,2.3228882E2,6.00125E2,0E0,4.4796484E2,0E0,8.28382E3,7.187431E2,9.71674E3,6.1628047E3,3.866543E2,5.679844E2,0E0,0E0,0E0,0E0,8.276979E2,4.385078E2,1.6458828E3,0E0,0E0,0E0,0E0,0E0,0E0,0E0,0E0,0E0,0E0,0E0,0E0,0E0,0E0,0E0,0E0,0E0,0E0,0E0,0E0,0E0,0E0,0E0,0E0,0E0,0E0,0E0,0E0,0E0],"parents":[2147483647,0,0,1,1,2,2,3,3,4,4,5,5,6,6,7,7,8,8,10,10,11,11,12,12,13,13,14,14,15,15,16,16,17,17,18,18,19,19,21,21,22,22,23,23,25,25,26,26,27,27,28,28,30,30,31,31,34,34,35,35,37,37,39,39,40,40,41,41,42,42,43,43,44,44,49,49,50,50,51,51],"right_children":[2,4,6,8,10,12,14,16,18,-1,20,22,24,26,28,30,32,34,36,38,-1,40,42,44,-1,46,48,50,52,-1,54,56,-1,-1,58,60,-1,62,-1,64,66,68,70,72,74,-1,-1,-1,-1,76,78,80,-1,-1,-1,-1,-1,-1,-1,-1,-1,-1,-1,-1,-1,-1,-1,-1,-1,-1,-1,-1,-1,-1,-1,-1,-1,-1,-1,-1,-1],"split_conditions":[4E-1,1E0,2.11E1,1.16E1,3E-1,1.428E0,4.2E0,1.8E1,2.1E-1,-5.187912E-1,2.489E2,1.1E1,1.6E1,1.71E-1,4E0,1.99E1,1.15E1,2E1,1.41E1,5.6E0,4.680678E-2,6E0,1.3E0,2.45E0,9.0631086E-1,1.9E0,2.16E1,7E-1,2.356E2,-2.4267145E-1,1.1E1,3.78E-1,1.3553804E-1,-3.2580107E-1,2.688E2,2.21E2,7.2152205E-2,1.98E1,-3.261704E-1,5.05E-1,1.86E1,1E0,8.4E0,1.634E0,3.243E0,-8.269427E-3,4.0321854E-1,8.1488144E-1,3.1601375E-1,1.8E1,1.35E1,5.3E-1,2.1820167E-1,1.8218355E-1,5.714614E-2,-2.2651729E-1,-5.104469E-3,-4.065409E-2,-2.4693005E-1,-1.3777609E-1,-2.3858081E-1,-2.1350901E-1,-4.5262277E-1,3.0494183E-1,5.495516E-1,-2.0517173E-1,7.210548E-2,1.407985E-1,-8.312189E-2,1.4503302E-1,3.3074597E-1,2.625459E-1,4.2464194E-1,5.794904E-1,7.896217E-1,-1.9391447E-1,1.6673654E-2,2.3759551E-1,5.3294903E-1,-3.1790566E-1,-1.6919528E-1],"split_indices":[14,10,3,2,14,13,15,6,13,0,16,2,6,13,8,3,2,6,2,15,0,8,14,13,0,14,3,14,16,0,2,13,0,0,16,16,0,3,0,13,3,10,15,13,13,0,0,0,0,6,2,13,0,0,0,0,0,0,0,0,0,0,0,0,0,0,0,0,0,0,0,0,0,0,0,0,0,0,0,0,0],"split_type":[0,0,0,0,0,0,0,0,0,0,0,0,0,0,0,0,0,0,0,0,0,0,0,0,0,0,0,0,0,0,0,0,0,0,0,0,0,0,0,0,0,0,0,0,0,0,0,0,0,0,0,0,0,0,0,0,0,0,0,0,0,0,0,0,0,0,0,0,0,0,0,0,0,0,0,0,0,0,0,0,0],"sum_hessian":[1.971E3,6.83E2,1.288E3,2.99E2,3.84E2,1.05E3,2.38E2,8.3E1,2.16E2,2.2E2,1.64E2,9.19E2,1.31E2,1.9E1,2.19E2,5.2E1,3.1E1,7.2E1,1.44E2,1.61E2,3E0,2.46E2,6.73E2,1.11E2,2E1,1E1,9E0,4.3E1,1.76E2,4E0,4.8E1,2.8E1,3E0,5E1,2.2E1,1.4E2,4E0,1.17E2,4.4E1,2.32E2,1.4E1,3.82E2,2.91E2,4.9E1,6.2E1,4E0,6E0,5E0,4E0,3E1,1.3E1,1.73E2,3E0,1.9E1,2.9E1,2.5E1,3E0,3E0,1.9E1,1.06E2,3.4E1,6E0,1.11E2,1.16E2,1.16E2,5E0,9E0,2.75E2,1.07E2,1.42E2,1.49E2,1.6E1,3.3E1,3.7E1,2.5E1,1.8E1,1.2E1,8E0,5E0,1.29E2,4.4E1],"tree_param":{"num_deleted":"0","num_feature":"17","num_nodes":"81","size_leaf_vector":"1"}},{"base_weights":[-8.983928E-2,1.2367595E1,-1.1075463E1,4.007763E0,1.8988462E1,-3.6890879E0,-2.0396322E1,9.711458E0,-1.2362829E-1,1.6086185E1,3.139535E1,-5.6193433E0,2.1913046E1,-2.3398745E1,-1.445153E1,2.2329187E1,8.353798E0,7.981806E0,-3.926649E0,1.1712559E1,2.4747738E1,7.226282E-1,1.9764969E1,-7.8760147E0,1.5793059E1,8.158689E-2,2.3208357E1,-2.379989E0,-2.3958103E1,1.4248508E1,-1.5887189E1,1.5855679E1,6.0884845E-1,-2.3317285E-1,9.0949955E0,2.660595E0,2.0119354E1,-5.7408705E0,7.870254E0,8.596237E0,1.7850618E1,2.802873E1,1.8342997E1,3.2425666E-1,5.818316E-1,-1.0391105E1,-3.9710004E0,2.8476084E1,6.970042E0,1.997813E-1,2.4463888E1,-1.7702916E-1,4.5953114E-2,-1.585503E-1,-2.4261744E1,1.1711109E-1,4.2255145E-1,-1.8061588E1,-4.2847266E0,4.3946755E-1,1.4124066E-1,1.962226E-1,-6.54386E-2,-5.4340657E-2,2.7155814E-1,1.4626044E-1,6.246481E-1,-1.3088338E-1,4.6716273E-1,3.5964854E-2,3.6492988E-1,1.06733546E-1,3.4359667E-1,3.946359E-1,6.9833905E-2,6.040186E-1,4.232992E-1,-9.6922815E-2,4.447065E-1,-1.6113357E-1,-3.8651133E-1,1.804404E-1,-1.8620713E-1,2.5080326E-1,6.0848564E-1,7.923439E-2,3.8624972E-1,5.359374E-1,2.7014172E-1,-4.9798667E-1,-3.299862E-1,-4.524776E-1,-3.2924613E-1,1.459695E-1,-1.6674472E-1],"categories":[],"categories_nodes":[],"categories_segments":[],"categories_sizes":[],"default_left":[0,0,0,0,0,0,0,0,0,0,0,0,0,0,0,0,0,0,0,0,0,0,0,0,0,0,0,0,0,0,0,0,0,0,0,0,0,0,0,0,0,0,0,0,0,0,0,0,0,0,0,0,0,0,0,0,0,0,0,0,0,0,0,0,0,0,0,0,0,0,0,0,0,0,0,0,0,0,0,0,0,0,0,0,0,0,0,0,0,0,0,0,0,0,0],"id":9,"left_children":[1,3,5,7,9,11,13,15,17,19,21,23,25,27,29,31,33,35,37,39,41,-1,43,45,47,-1,49,51,53,55,57,59,-1,-1,61,63,65,67,69,71,73,75,77,-1,-1,79,81,83,85,-1,87,-1,-1,-1,89,-1,-1,91,93,-1,-1,-1,-1,-1,-1,-1,-1,-1,-1,-1,-1,-1,-1,-1,-1,-1,-1,-1,-1,-1,-1,-1,-1,-1,-1,-1,-1,-1,-1,-1,-1,-1,-1,-1,-1],"loss_changes":[2.680943E5,5.0729984E4,7.159005E4,9.593748E3,1.7921688E4,2.8881543E4,7.8647188E3,2.736662E3,7.336088E3,1.54998125E4,4.562578E3,2.6312652E4,8.469746E2,3.5118594E3,6.6956367E3,3.4839307E2,2.419498E3,4.8504844E3,3.5119119E3,5.1780195E3,2.397539E3,0E0,5.131631E2,4.778199E3,5.613365E3,0E0,3.7943164E2,2.9408948E2,1.2420156E3,3.3277515E2,3.7023984E3,4.3078174E2,0E0,0E0,1.3707236E3,3.2093633E3,3.0371885E3,3.4453975E3,1.3492816E3,5.135838E3,2.438543E3,6.92375E2,4.6242207E3,0E0,0E0,6.054162E3,1.3542685E4,2.6185352E2,1.1069962E3,0E0,4.9910156E2,0E0,0E0,0E0,1.0161875E3,0E0,0E0,5.3908984E2,1.2345828E3,0E0,0E0,0E0,0E0,0E0,0E0,0E0,0E0,0E0,0E0,0E0,0E0,0E0,0E0,0E0,0E0,0E0,0E0,0E0,0E0,0E0,0E0,0E0,0E0,0E0,0E0,0E0,0E0,0E0,0E0,0E0,0E0,0E0,0E0,0E0,0E0],"parents":[2147483647,0,0,1,1,2,2,3,3,4,4,5,5,6,6,7,7,8,8,9,9,10,10,11,11,12,12,13,13,14,14,15,15,16,16,17,17,18,18,19,19,20,20,22,22,23,23,24,24,26,26,27,27,28,28,29,29,30,30,31,31,34,34,35,35,36,36,37,37,38,38,39,39,40,40,41,41,42,42,45,45,46,46,47,47,48,48,50,50,54,54,57,57,58,58],"right_children":[2,4,6,8,10,12,14,16,18,20,22,24,26,28,30,32,34,36,38,40,42,-1,44,46,48,-1,50,52,54,56,58,60,-1,-1,62,64,66,68,70,72,74,76,78,-1,-1,80,82,84,86,-1,88,-1,-1,-1,90,-1,-1,92,94,-1,-1,-1,-1,-1,-1,-1,-1,-1,-1,-1,-1,-1,-1,-1,-1,-1,-1,-1,-1,-1,-1,-1,-1,-1,-1,-1,-1,-1,-1,-1,-1,-1,-1,-1,-1],"split_conditions":[2.02E1,4.28E-1,2.16E1,1.18E1,3.06E1,2.3E1,4E-1,5.15E1,1.95E1,9.4E0,1.87E1,1.44E1,4.1E1,9.4E0,4.2E0,5E1,2.05E1,4E0,3.95E-1,1.564E2,5.6E1,7.226282E-1,6.4E0,2.15E1,1.16E1,8.158689E-2,3.5E0,1E0,3.2E0,1.89E1,1E0,1.8E0,6.0884845E-1,-2.3317285E-1,9.3E1,1.848E2,6.2E1,1.77E1,8.38E1,1.037E0,1.58E1,1.02E1,4.2E0,3.2425666E-1,5.818316E-1,2.03E1,2.1E1,5E0,6E0,1.997813E-1,7.65E1,-1.7702916E-1,4.5953114E-2,-1.585503E-1,1E0,1.1711109E-1,4.2255145E-1,2.8E-1,9.8E0,4.3946755E-1,1.4124066E-1,1.962226E-1,-6.54386E-2,-5.4340657E-2,2.7155814E-1,1.4626044E-1,6.246481E-1,-1.3088338E-1,4.6716273E-1,3.5964854E-2,3.6492988E-1,1.06733546E-1,3.4359667E-1,3.946359E-1,6.9833905E-2,6.040186E-1,4.232992E-1,-9.6922815E-2,4.447065E-1,-1.6113357E-1,-3.8651133E-1,1.804404E-1,-1.8620713E-1,2.5080326E-1,6.0848564E-1,7.923439E-2,3.8624972E-1,5.359374E-1,2.7014172E-1,-4.9798667E-1,-3.299862E-1,-4.524776E-1,-3.2924613E-1,1.459695E-1,-1.6674472E-1],"split_indices":[3,13,3,2,15,4,0,5,3,12,3,15,5,2,15,5,4,7,13,16,16,0,12,4,2,0,15,11,15,2,11,15,0,0,5,16,5,2,5,13,2,2,15,0,0,3,3,7,7,0,5,0,0,0,11,0,0,13,2,0,0,0,0,0,0,0,0,0,0,0,0,0,0,0,0,0,0,0,0,0,0,0,0,0,0,0,0,0,0,0,0,0,0,0,0],"split_type":[0,0,0,0,0,0,0,0,0,0,0,0,0,0,0,0,0,0,0,0,0,0,0,0,0,0,0,0,0,0,0,0,0,0,0,0,0,0,0,0,0,0,0,0,0,0,0,0,0,0,0,0,0,0,0,0,0,0,0,0,0,0,0,0,0,0,0,0,0,0,0,0,0,0,0,0,0,0,0,0,0,0,0,0,0,0,0,0,0,0,0,0,0,0,0],"sum_hessian":[1.957E3,9.17E2,1.04E3,4.06E2,5.11E2,5.81E2,4.59E2,1.7E2,2.36E2,4.16E2,9.5E1,5.41E2,4E1,3.03E2,1.56E2,1.5E1,1.55E2,7.5E1,1.61E2,2.78E2,1.38E2,6.6E1,2.9E1,4.9E2,5.1E1,3E0,3.7E1,8E0,2.95E2,7E0,1.49E2,1E1,5E0,5E0,1.5E2,5.3E1,2.2E1,1.4E2,2.1E1,1.86E2,9.2E1,8.9E1,4.9E1,2.3E1,6E0,2.97E2,1.93E2,2E1,3.1E1,4E0,3.3E1,3E0,5E0,6E0,2.89E2,4E0,3E0,1.25E2,2.4E1,5E0,5E0,1.42E2,8E0,3.6E1,1.7E1,1.1E1,1.1E1,1.37E2,3E0,1.4E1,7E0,1.36E2,5E1,8.1E1,1.1E1,6.5E1,2.4E1,7E0,4.2E1,2.37E2,6E1,5.6E1,1.37E2,3E0,1.7E1,2.6E1,5E0,2.6E1,7E0,2.65E2,2.4E1,2.9E1,9.6E1,6E0,1.8E1],"tree_param":{"num_deleted":"0","num_feature":"17","num_nodes":"95","size_leaf_vector":"1"}},{"base_weights":[-3.40938E-2,-1.624075E1,8.719645E0,-7.7406945E0,-2.151727E1,1.2137368E1,-1.0295677E1,-1.0457487E1,2.917806E0,-2.302013E1,-1.1354486E1,9.274901E0,2.6816648E1,-1.2987914E1,2.8586426E1,-1.2215179E1,-6.9164987E0,-1.9946916E-1,4.128365E0,-2.3793823E1,-1.7573147E1,2.687008E-1,-1.2984183E1,1.8406925E1,5.4858527E0,3.0647978E1,1.4159763E1,2.1493839E-1,-1.344179E1,3.3889264E-1,6.743893E-1,-4.246501E-1,-1.17260685E1,-7.4873533E0,9.505174E-2,4.2992258E-1,1.7689095E0,-2.9180327E-1,-2.4041407E1,-3.6967704E-1,-2.4123882E-1,-1.43034315E1,-2.591858E-4,2.3466524E1,1.3920834E1,2.5877545E0,1.0751002E1,2.368875E1,3.4093376E1,1.6542843E1,5.705091E0,-1.4535784E1,-3.8983448E0,-2.0819807E-1,-2.9455116E-1,-3.2081318E-1,-1.31591E-1,1.2544765E-1,-6.839974E-2,-4.8329172E-1,-1.6930765E-1,-2.9657206E-1,-9.2761956E-2,5.495748E-1,3.5859534E-1,2.1856385E-1,4.093875E-1,1.6089082E-1,-1.584906E-2,1.5813574E-1,3.5914147E-1,3.312111E-1,6.566038E-1,7.992963E-1,6.136792E-1,4.250589E-1,2.388628E-1,1.6510088E-2,2.7975982E-1,-3.2632327E-1,-2.1125242E-1,-1.19487874E-1,1.1698902E-1],"categories":[],"categories_nodes":[],"categories_segments":[],"categories_sizes":[],"default_left":[0,0,0,0,0,0,0,0,0,0,0,0,0,0,0,0,0,0,0,0,0,0,0,0,0,0,0,0,0,0,0,0,0,0,0,0,0,0,0,0,0,0,0,0,0,0,0,0,0,0,0,0,0,0,0,0,0,0,0,0,0,0,0,0,0,0,0,0,0,0,0,0,0,0,0,0,0,0,0,0,0,0,0],"id":10,"left_children":[1,3,5,7,9,11,13,15,17,19,21,23,25,27,29,31,33,-1,35,37,39,-1,41,43,45,47,49,-1,51,-1,-1,-1,53,55,-1,-1,57,-1,59,-1,-1,61,-1,63,65,67,69,71,73,75,77,79,81,-1,-1,-1,-1,-1,-1,-1,-1,-1,-1,-1,-1,-1,-1,-1,-1,-1,-1,-1,-1,-1,-1,-1,-1,-1,-1,-1,-1,-1,-1],"loss_changes":[2.8033406E5,3.090914E4,8.350637E4,7.7635225E3,6.253422E3,4.5460688E4,2.0885408E4,1.2373926E3,8.9831506E2,1.1370781E3,2.4771191E3,3.1450969E4,8.1402656E3,2.127162E3,1.9535547E2,3.6631055E2,5.224099E2,0E0,2.0472242E3,3.7526562E2,2.1893555E1,0E0,9.210137E2,5.726164E3,9.826773E3,2.41775E3,7.67542E2,0E0,1.829375E3,0E0,0E0,0E0,3.7892383E2,4.3346606E2,0E0,0E0,1.0969524E3,0E0,3.8754688E2,0E0,0E0,1.7605176E2,0E0,2.2528516E3,2.5920566E3,7.7178667E3,4.54634E3,2.574211E3,5.211953E2,4.5448145E2,4.300786E2,9.6822656E2,4.3971002E2,0E0,0E0,0E0,0E0,0E0,0E0,0E0,0E0,0E0,0E0,0E0,0E0,0E0,0E0,0E0,0E0,0E0,0E0,0E0,0E0,0E0,0E0,0E0,0E0,0E0,0E0,0E0,0E0,0E0,0E0],"parents":[2147483647,0,0,1,1,2,2,3,3,4,4,5,5,6,6,7,7,8,8,9,9,10,10,11,11,12,12,13,13,14,14,15,15,16,16,18,18,19,19,20,20,22,22,23,23,24,24,25,25,26,26,28,28,32,32,33,33,36,36,38,38,41,41,43,43,44,44,45,45,46,46,47,47,48,48,49,49,50,50,51,51,52,52],"right_children":[2,4,6,8,10,12,14,16,18,20,22,24,26,28,30,32,34,-1,36,38,40,-1,42,44,46,48,50,-1,52,-1,-1,-1,54,56,-1,-1,58,-1,60,-1,-1,62,-1,64,66,68,70,72,74,76,78,80,82,-1,-1,-1,-1,-1,-1,-1,-1,-1,-1,-1,-1,-1,-1,-1,-1,-1,-1,-1,-1,-1,-1,-1,-1,-1,-1,-1,-1,-1,-1],"split_conditions":[4E-1,2.03E1,2.13E1,8.7E0,1.7E1,2.21E1,8E-1,7.8E0,1.99E1,5.6E0,1.572E2,1.11E1,1.41E1,1.26E2,1.677E2,3E-1,3E0,-1.9946916E-1,1.05E1,1.26E2,1.09E1,2.687008E-1,7E0,1.02E1,1.7E0,3.23E1,1.97E1,2.1493839E-1,1.7E1,3.3889264E-1,6.743893E-1,-4.246501E-1,6E0,1.99E1,9.505174E-2,4.2992258E-1,6.4E1,-2.9180327E-1,1.23E1,-3.6967704E-1,-2.4123882E-1,1.52E1,-2.591858E-4,5.6E1,1.665E2,1.19E1,1.12E1,4E0,1.24E1,1.56E1,2.125E2,8.4E0,1.18E1,-2.0819807E-1,-2.9455116E-1,-3.2081318E-1,-1.31591E-1,1.2544765E-1,-6.839974E-2,-4.8329172E-1,-1.6930765E-1,-2.9657206E-1,-9.2761956E-2,5.495748E-1,3.5859534E-1,2.1856385E-1,4.093875E-1,1.6089082E-1,-1.584906E-2,1.5813574E-1,3.5914147E-1,3.312111E-1,6.566038E-1,7.992963E-1,6.136792E-1,4.250589E-1,2.388628E-1,1.6510088E-2,2.7975982E-1,-3.2632327E-1,-2.1125242E-1,-1.19487874E-1,1.1698902E-1],"split_indices":[14,3,3,12,6,15,14,12,3,15,16,2,2,16,16,14,8,0,2,16,12,0,15,2,14,15,3,0,6,0,0,0,15,3,0,0,16,0,12,0,0,2,0,16,16,2,15,7,2,2,16,15,2,0,0,0,0,0,0,0,0,0,0,0,0,0,0,0,0,0,0,0,0,0,0,0,0,0,0,0,0,0,0],"split_type":[0,0,0,0,0,0,0,0,0,0,0,0,0,0,0,0,0,0,0,0,0,0,0,0,0,0,0,0,0,0,0,0,0,0,0,0,0,0,0,0,0,0,0,0,0,0,0,0,0,0,0,0,0,0,0,0,0,0,0,0,0,0,0,0,0,0,0,0,0,0,0,0,0,0,0,0,0,0,0,0,0,0,0],"sum_hessian":[1.974E3,6.92E2,1.282E3,2.66E2,4.26E2,1.087E3,1.95E2,2.12E2,5.4E1,3.7E2,5.6E1,9.11E2,1.76E2,1.83E2,1.2E1,1.4E2,7.2E1,4E0,5E1,3.21E2,4.9E1,3E0,5.3E1,2.66E2,6.45E2,1.34E2,4.2E1,3E0,1.8E2,5E0,7E0,5E0,1.35E2,6.9E1,3E0,5E0,4.5E1,1E1,3.11E2,4E1,9E0,4.8E1,5E0,1.23E2,1.43E2,4.17E2,2.28E2,4.7E1,8.7E1,3.2E1,1E1,1.61E2,1.9E1,9.7E1,3.8E1,5E0,6.4E1,2.4E1,2.1E1,3.08E2,3E0,4.5E1,3E0,6.9E1,5.4E1,1E2,4.3E1,1.59E2,2.58E2,1.65E2,6.3E1,2.8E1,1.9E1,2.8E1,5.9E1,1.4E1,1.8E1,7E0,3E0,1.09E2,5.2E1,1.6E1,3E0],"tree_param":{"num_deleted":"0","num_feature":"17","num_nodes":"83","size_leaf_vector":"1"}},{"base_weights":[5.709416E-1,7.4966726E0,-1.8291042E1,-6.0391724E-1,1.6552135E1,-1.126245E1,-2.1312944E1,-3.5611959E0,6.142914E0,1.2628659E1,2.5928274E1,2.1006794E1,-1.2630745E1,-2.3130814E1,-1.54231615E1,-6.5379267E0,8.294163E0,1.0393308E1,2.803564E0,2.2928543E1,7.658325E0,2.2441183E1,3.8295868E1,5.10976E-1,2.2326176E-1,-1.4490851E1,-3.1305711E0,-3.5069253E0,-2.3542498E1,-3.7525344E0,-1.6815184E1,-4.42561E0,-1.9451582E1,1.3837368E1,-3.1710622E0,1.227486E1,9.101402E0,-4.9858123E-1,9.064113E0,3.3904412E0,2.4224424E1,1.020425E1,-4.453673E0,1.6431412E1,3.272334E1,7.900879E-1,3.3173308E-1,-1.5756812E1,-8.764596E0,-5.674788E0,2.5734743E-1,9.489013E-2,-2.1863252E-1,-2.0176928E1,-2.4646957E1,-2.4055617E-1,8.291694E-1,-1.758771E1,-3.0304706E-2,-1.17317475E-1,1.9043311E-1,-3.2202753E-1,-4.8264572E-1,2.1961556E-1,4.6630332E-1,4.6498248E-1,-1.2566954E-1,3.2610747E-1,2.0203933E-1,2.6351549E-2,2.033449E-1,-4.942233E-2,2.7031264E-1,2.3951764E-1,-2.5422905E-2,-6.934324E-2,3.2616076E-1,5.680629E-1,4.2427313E-1,1.22607045E-1,3.5789293E-1,2.6962116E-1,-1.6950193E-1,6.288192E-1,2.8954512E-1,8.26606E-1,5.862798E-1,-1.6433579E-1,-3.2572874E-1,-9.3942575E-2,-2.9565662E-1,-2.1681905E-1,-9.082279E-3,-1.6676803E-1,-4.1113773E-1,-2.3247457E-1,-4.9696603E-1,-8.633379E-2,1.42084E-1,-4.024953E-1,-3.0663842E-1],"categories":[],"categories_nodes":[],"categories_segments":[],"categories_sizes":[],"default_left":[0,0,0,0,0,0,0,0,0,0,0,0,0,0,0,0,0,0,0,0,0,0,0,0,0,0,0,0,0,0,0,0,0,0,0,0,0,0,0,0,0,0,0,0,0,0,0,0,0,0,0,0,0,0,0,0,0,0,0,0,0,0,0,0,0,0,0,0,0,0,0,0,0,0,0,0,0,0,0,0,0,0,0,0,0,0,0,0,0,0,0,0,0,0,0,0,0,0,0,0,0],"id":11,"left_children":[1,3,5,7,9,11,13,15,17,19,21,23,25,27,29,31,33,35,37,39,41,43,45,-1,-1,47,49,51,53,55,57,59,61,63,65,67,69,71,73,75,77,79,81,83,85,-1,-1,87,89,91,-1,-1,-1,93,95,-1,97,99,-1,-1,-1,-1,-1,-1,-1,-1,-1,-1,-1,-1,-1,-1,-1,-1,-1,-1,-1,-1,-1,-1,-1,-1,-1,-1,-1,-1,-1,-1,-1,-1,-1,-1,-1,-1,-1,-1,-1,-1,-1,-1,-1],"loss_changes":[2.6022533E5,1.06890805E5,1.1116703E4,1.53846E4,2.4974344E4,7.4607305E3,3.6292031E3,1.8969434E4,3.303706E3,2.4749703E4,7.8400938E3,2.0425293E1,2.7255137E3,2.1983438E3,1.4111523E3,1.1611285E4,6.9098545E3,1.343789E2,2.7557732E3,3.9127656E3,1.0222555E4,9.339422E3,4.616875E2,0E0,0E0,8.066387E2,1.1705415E3,4.8195355E2,5.23375E2,4.2927618E2,9.269199E2,7.4875874E3,5.4426953E2,1.7135371E3,3.1029927E3,1.7155957E2,5.2356836E2,2.4638206E3,1.4016829E3,1.033532E3,1.2495547E3,8.438557E3,4.2963955E3,2.5567305E3,4.7627734E2,0E0,0E0,2.8457617E2,5.631206E2,6.401187E2,0E0,0E0,0E0,1.5567383E2,2.3880469E2,0E0,2.8954752E2,1.250332E2,0E0,0E0,0E0,0E0,0E0,0E0,0E0,0E0,0E0,0E0,0E0,0E0,0E0,0E0,0E0,0E0,0E0,0E0,0E0,0E0,0E0,0E0,0E0,0E0,0E0,0E0,0E0,0E0,0E0,0E0,0E0,0E0,0E0,0E0,0E0,0E0,0E0,0E0,0E0,0E0,0E0,0E0,0E0],"parents":[2147483647,0,0,1,1,2,2,3,3,4,4,5,5,6,6,7,7,8,8,9,9,10,10,11,11,12,12,13,13,14,14,15,15,16,16,17,17,18,18,19,19,20,20,21,21,22,22,25,25,26,26,27,27,28,28,29,29,30,30,31,31,32,32,33,33,34,34,35,35,36,36,37,37,38,38,39,39,40,40,41,41,42,42,43,43,44,44,47,47,48,48,49,49,53,53,54,54,56,56,57,57],"right_children":[2,4,6,8,10,12,14,16,18,20,22,24,26,28,30,32,34,36,38,40,42,44,46,-1,-1,48,50,52,54,56,58,60,62,64,66,68,70,72,74,76,78,80,82,84,86,-1,-1,88,90,92,-1,-1,-1,94,96,-1,98,100,-1,-1,-1,-1,-1,-1,-1,-1,-1,-1,-1,-1,-1,-1,-1,-1,-1,-1,-1,-1,-1,-1,-1,-1,-1,-1,-1,-1,-1,-1,-1,-1,-1,-1,-1,-1,-1,-1,-1,-1,-1,-1,-1],"split_conditions":[2.14E1,4.12E-1,2.17E1,3.32E-1,1.037E0,4E0,5E0,2.15E1,4.76E1,1.07E1,1.6E1,6E0,1.7E1,1.1E1,9.9E0,2.03E1,5E0,1.11E1,1.92E2,1.98E1,2.09E1,2.45E0,2.2E1,5.10976E-1,2.2326176E-1,8.5E0,1.23E1,1.88E1,1.14E1,3.32E-1,2.688E2,3E0,2.31E-1,2.09E1,1E1,1E0,1.12E1,2.3E1,9.6E0,6.88E-1,2E1,1.4E1,4E0,2E0,1.72E1,7.900879E-1,3.3173308E-1,9.4E0,1.819E2,1.8E1,2.5734743E-1,9.489013E-2,-2.1863252E-1,9.5E0,4E0,-2.4055617E-1,1.572E2,1E1,-3.0304706E-2,-1.17317475E-1,1.9043311E-1,-3.2202753E-1,-4.8264572E-1,2.1961556E-1,4.6630332E-1,4.6498248E-1,-1.2566954E-1,3.2610747E-1,2.0203933E-1,2.6351549E-2,2.033449E-1,-4.942233E-2,2.7031264E-1,2.3951764E-1,-2.5422905E-2,-6.934324E-2,3.2616076E-1,5.680629E-1,4.2427313E-1,1.22607045E-1,3.5789293E-1,2.6962116E-1,-1.6950193E-1,6.288192E-1,2.8954512E-1,8.26606E-1,5.862798E-1,-1.6433579E-1,-3.2572874E-1,-9.3942575E-2,-2.9565662E-1,-2.1681905E-1,-9.082279E-3,-1.6676803E-1,-4.1113773E-1,-2.3247457E-1,-4.9696603E-1,-8.633379E-2,1.42084E-1,-4.024953E-1,-3.0663842E-1],"split_indices":[3,13,3,13,13,15,15,4,16,2,6,8,6,6,2,3,8,2,16,3,3,13,6,0,0,15,2,2,2,13,16,8,13,3,6,6,2,4,15,13,3,6,8,8,3,0,0,2,16,6,0,0,0,2,8,0,16,12,0,0,0,0,0,0,0,0,0,0,0,0,0,0,0,0,0,0,0,0,0,0,0,0,0,0,0,0,0,0,0,0,0,0,0,0,0,0,0,0,0,0,0],"split_type":[0,0,0,0,0,0,0,0,0,0,0,0,0,0,0,0,0,0,0,0,0,0,0,0,0,0,0,0,0,0,0,0,0,0,0,0,0,0,0,0,0,0,0,0,0,0,0,0,0,0,0,0,0,0,0,0,0,0,0,0,0,0,0,0,0,0,0,0,0,0,0,0,0,0,0,0,0,0,0,0,0,0,0,0,0,0,0,0,0,0,0,0,0,0,0,0,0,0,0,0,0],"sum_hessian":[1.99E3,1.456E3,5.34E2,7.69E2,6.87E2,1.62E2,3.72E2,5.35E2,2.34E2,4.86E2,2.01E2,6E0,1.56E2,2.82E2,9E1,4.28E2,1.07E2,1.02E2,1.32E2,1.57E2,3.29E2,1.59E2,4.2E1,3E0,3E0,1.3E2,2.6E1,6E0,2.76E2,1E1,8E1,3.69E2,5.9E1,7.2E1,3.5E1,3.8E1,6.4E1,8.7E1,4.5E1,1E1,1.47E2,2.72E2,5.7E1,1.02E2,5.7E1,3.9E1,3E0,1.05E2,2.5E1,2.3E1,3E0,3E0,3E0,7.3E1,2.03E2,3E0,7E0,7.6E1,4E0,3.35E2,3.4E1,3.7E1,2.2E1,5.7E1,1.5E1,3E0,3.2E1,1.1E1,2.7E1,8E0,5.6E1,7.7E1,1E1,3.5E1,1E1,7E0,3E0,5.8E1,8.9E1,1.79E2,9.3E1,1E1,4.7E1,1E1,9.2E1,1.3E1,4.4E1,8E0,9.7E1,1.6E1,9E0,1.1E1,1.2E1,3E0,7E1,4E0,1.99E2,4E0,3E0,3.2E1,4.4E1],"tree_param":{"num_deleted":"0","num_feature":"17","num_nodes":"101","size_leaf_vector":"1"}},{"base_weights":[2.1563132E-1,-1.594427E1,8.856678E0,-8.209336E0,-2.179284E1,6.556421E0,2.7069365E1,3.6805074E0,-9.027086E0,-4.8445764E-1,-1.841306E1,1.28164425E1,1.0116035E0,1.7599367E1,3.1429472E1,1.1622585E1,-9.660433E0,-1.4932633E1,-7.7145667E0,-5.9701686E0,-1.9497126E1,2.7545934E0,1.7742212E1,-1.0021348E1,1.0850219E1,5.4280214E-2,1.8886354E1,3.3392323E1,3.6657754E-1,4.4092736E-1,6.2708144E0,-2.7001065E-1,-4.790398E-2,-1.06272745E1,-1.7928726E1,-6.052494E0,-9.963302E0,3.4120765E-1,-1.5914041E1,-4.2546532E-1,-1.5877357E1,7.928945E0,-1.6992807E0,1.3848167E1,2.5912739E1,-1.1576064E1,1.1458386E1,7.2981043E0,1.682633E1,1.471913E1,4.5480046E-1,3.8471905E1,2.9854187E1,-1.2813655E-1,4.053964E-1,1.7433226E-2,-2.4811395E-1,-1.660997E-1,-3.748675E-1,-1.0114886E-1,-2.8696245E-1,-2.4362023E-1,-1.4681219E-1,-1.8367821E-1,-3.6838537E-1,-1.48345E-1,-3.390486E-1,1.7987755E-1,-2.0885542E-1,-7.725384E-2,3.9722082E-1,2.9940066E-1,4.4276617E-2,3.7449026E-1,5.59697E-1,1.8305296E-1,-2.4818587E-1,3.0995592E-1,-1.0330788E-2,9.432285E-2,2.9600978E-1,2.0299885E-1,4.2894644E-1,4.1775367E-1,2.1877366E-1,8.058952E-1,4.1788208E-1,5.219728E-1,7.2962093E-1],"categories":[],"categories_nodes":[],"categories_segments":[],"categories_sizes":[],"default_left":[0,0,0,0,0,0,0,0,0,0,0,0,0,0,0,0,0,0,0,0,0,0,0,0,0,0,0,0,0,0,0,0,0,0,0,0,0,0,0,0,0,0,0,0,0,0,0,0,0,0,0,0,0,0,0,0,0,0,0,0,0,0,0,0,0,0,0,0,0,0,0,0,0,0,0,0,0,0,0,0,0,0,0,0,0,0,0,0,0],"id":12,"left_children":[1,3,5,7,9,11,13,15,17,-1,19,21,23,25,27,29,31,33,35,37,39,41,43,45,47,-1,49,51,-1,-1,53,-1,-1,55,57,59,61,-1,63,-1,65,67,69,71,73,75,77,79,81,83,-1,85,87,-1,-1,-1,-1,-1,-1,-1,-1,-1,-1,-1,-1,-1,-1,-1,-1,-1,-1,-1,-1,-1,-1,-1,-1,-1,-1,-1,-1,-1,-1,-1,-1,-1,-1,-1,-1],"loss_changes":[2.7774106E5,3.1165234E4,5.4110234E4,2.951166E3,2.781375E3,3.9970973E4,5.4241484E3,2.2317673E3,2.0583438E3,0E0,2.1581328E3,2.676025E4,6.6540875E4,8.639697E2,1.897625E3,5.81302E2,1.8767822E2,4.4871875E2,8.036084E2,3.7064634E3,6.5133594E2,4.139938E3,1.1182555E4,9.783787E3,6.7501914E3,0E0,3.6439648E2,3.4746875E2,0E0,0E0,1.907382E3,0E0,0E0,4.8346973E2,5.8445312E1,1.0461763E3,4.7086816E2,0E0,1.078418E1,0E0,3.6962402E2,1.7174956E3,4.5979707E3,3.2003555E3,1.1944609E3,4.7776133E3,9.784346E2,3.8973252E3,3.4781758E3,3.2482812E2,0E0,1.391289E2,3.7930078E2,0E0,0E0,0E0,0E0,0E0,0E0,0E0,0E0,0E0,0E0,0E0,0E0,0E0,0E0,0E0,0E0,0E0,0E0,0E0,0E0,0E0,0E0,0E0,0E0,0E0,0E0,0E0,0E0,0E0,0E0,0E0,0E0,0E0,0E0,0E0,0E0],"parents":[2147483647,0,0,1,1,2,2,3,3,4,4,5,5,6,6,7,7,8,8,10,10,11,11,12,12,13,13,14,14,15,15,16,16,17,17,18,18,19,19,20,20,21,21,22,22,23,23,24,24,26,26,27,27,30,30,33,33,34,34,35,35,36,36,38,38,40,40,41,41,42,42,43,43,44,44,45,45,46,46,47,47,48,48,49,49,51,51,52,52],"right_children":[2,4,6,8,10,12,14,16,18,-1,20,22,24,26,28,30,32,34,36,38,40,42,44,46,48,-1,50,52,-1,-1,54,-1,-1,56,58,60,62,-1,64,-1,66,68,70,72,74,76,78,80,82,84,-1,86,88,-1,-1,-1,-1,-1,-1,-1,-1,-1,-1,-1,-1,-1,-1,-1,-1,-1,-1,-1,-1,-1,-1,-1,-1,-1,-1,-1,-1,-1,-1,-1,-1,-1,-1,-1,-1],"split_conditions":[4E-1,1E0,1.326E0,1.06E1,3E-1,1E0,1.2E1,1.8E1,3E-1,-4.8445764E-1,1.4E-1,3.6E-1,1.2E0,1.428E0,1.4E1,3E0,8.33E1,4E0,1.27E1,2.15E1,3E-1,1.19E1,5.3E-1,1.44E1,4E0,5.4280214E-2,2.4E0,1.22E1,3.6657754E-1,4.4092736E-1,9E0,-2.7001065E-1,-4.790398E-2,1.31E1,2E0,2.15E1,7.5E1,3.4120765E-1,3.9E0,-4.2546532E-1,3.04E-1,2.15E1,2.15E1,1E0,6E-1,1E0,1.3E0,2.3E1,5.83E1,1.07E1,4.5480046E-1,7.72E1,1.7E1,-1.2813655E-1,4.053964E-1,1.7433226E-2,-2.4811395E-1,-1.660997E-1,-3.748675E-1,-1.0114886E-1,-2.8696245E-1,-2.4362023E-1,-1.4681219E-1,-1.8367821E-1,-3.6838537E-1,-1.48345E-1,-3.390486E-1,1.7987755E-1,-2.0885542E-1,-7.725384E-2,3.9722082E-1,2.9940066E-1,4.4276617E-2,3.7449026E-1,5.59697E-1,1.8305296E-1,-2.4818587E-1,3.0995592E-1,-1.0330788E-2,9.432285E-2,2.9600978E-1,2.0299885E-1,4.2894644E-1,4.1775367E-1,2.1877366E-1,8.058952E-1,4.1788208E-1,5.219728E-1,7.2962093E-1],"split_indices":[14,10,13,2,14,10,6,6,14,0,13,13,14,13,2,7,5,7,2,4,13,2,13,15,7,0,0,2,0,0,6,0,0,2,6,4,5,0,15,0,13,4,4,9,0,7,0,4,5,2,0,5,6,0,0,0,0,0,0,0,0,0,0,0,0,0,0,0,0,0,0,0,0,0,0,0,0,0,0,0,0,0,0,0,0,0,0,0,0],"split_type":[0,0,0,0,0,0,0,0,0,0,0,0,0,0,0,0,0,0,0,0,0,0,0,0,0,0,0,0,0,0,0,0,0,0,0,0,0,0,0,0,0,0,0,0,0,0,0,0,0,0,0,0,0,0,0,0,0,0,0,0,0,0,0,0,0,0,0,0,0,0,0,0,0,0,0,0,0,0,0,0,0,0,0,0,0,0,0,0,0],"sum_hessian":[1.987E3,6.92E2,1.295E3,2.99E2,3.93E2,1.151E3,1.44E2,1.9E1,2.8E2,2.25E2,1.68E2,5.4E2,6.11E2,4.7E1,9.7E1,1.2E1,7E0,4.9E1,2.31E2,1.4E1,1.54E2,1.78E2,3.62E2,2.88E2,3.23E2,4E0,4.3E1,8.3E1,1.4E1,3E0,9E0,4E0,3E0,2.2E1,2.7E1,1.35E2,9.6E1,4E0,1E1,1E2,5.4E1,8.2E1,9.6E1,2.47E2,1.15E2,2.69E2,1.9E1,2.04E2,1.19E2,2.3E1,2E1,3E1,5.3E1,5E0,4E0,3E0,1.9E1,3E0,2.4E1,1.22E2,1.3E1,5E1,4.6E1,4E0,6E0,7E0,4.7E1,7.8E1,4E0,8.8E1,8E0,2.25E2,2.2E1,2.8E1,8.7E1,1E1,2.59E2,1.4E1,5E0,1.53E2,5.1E1,5E1,6.9E1,7E0,1.6E1,2.6E1,4E0,3.7E1,1.6E1],"tree_param":{"num_deleted":"0","num_feature":"17","num_nodes":"89","size_leaf_vector":"1"}},{"base_weights":[-3.6159584E-1,1.112708E1,-1.0307509E1,2.8430629E0,1.7872238E1,-3.5891025E0,-1.84567E1,-2.0271294E0,7.005714E0,1.499725E1,2.8894335E1,-5.2981277E0,1.9211088E1,-8.391841E0,-2.0121466E1,-6.6824675E0,7.1684155E0,1.1006054E1,3.9728584E0,2.5896576E1,1.1933294E1,3.2701138E1,1.4057289E1,-7.096965E0,2.1110554E1,2.7202477E1,8.515667E0,-1.0205041E1,3.4361547E-1,-2.051647E1,1.9986461E-1,-1.0760845E1,-2.023252E0,1.0399545E1,-9.620723E0,1.4727444E1,8.310533E0,-8.9994895E-1,8.226024E0,2.8138948E1,1.2019825E1,1.0561335E1,2.8291409E1,2.9934462E1,7.9542214E-1,1.461527E-1,3.5720184E-1,-9.180287E0,-4.1382303E0,1.5329072E1,2.9700056E1,3.8791782E-1,6.787461E-1,1.2140938E1,3.116372E0,1.2520474E0,-1.3900351E1,-2.2644312E1,-1.5298227E1,3.9361334E-1,-2.4943388E-1,-2.3366615E-1,-2.4558804E-3,-1.2899497E-1,2.9525995E-1,-3.720594E-1,1.8632915E-2,3.584077E-1,2.442916E-1,9.768277E-3,1.8741316E-1,1.8457557E-1,-6.633689E-2,2.284695E-1,-8.066068E-2,4.615939E-1,6.442423E-1,-9.379429E-2,5.885579E-1,1.7309329E-1,3.820038E-1,1.8779251E-1,6.552169E-1,4.975533E-1,7.1496105E-1,-1.3505015E-1,-3.5626665E-1,1.6607578E-1,-1.621531E-1,3.683896E-1,-7.810473E-2,2.6022556E-1,7.1298736E-1,1.5579139E-1,3.551688E-1,-7.857612E-3,9.9396236E-2,-2.3536943E-1,9.794099E-2,-3.1181234E-1,-1.574985E-1,1.7687318E-1,-4.6017545E-1,-1.3234042E-1,-3.154297E-1],"categories":[],"categories_nodes":[],"categories_segments":[],"categories_sizes":[],"default_left":[0,0,0,0,0,0,0,0,0,0,0,0,0,0,0,0,0,0,0,0,0,0,0,0,0,0,0,0,0,0,0,0,0,0,0,0,0,0,0,0,0,0,0,0,0,0,0,0,0,0,0,0,0,0,0,0,0,0,0,0,0,0,0,0,0,0,0,0,0,0,0,0,0,0,0,0,0,0,0,0,0,0,0,0,0,0,0,0,0,0,0,0,0,0,0,0,0,0,0,0,0,0,0,0,0],"id":13,"left_children":[1,3,5,7,9,11,13,15,17,19,21,23,25,27,29,31,33,35,37,39,41,43,45,47,49,51,53,55,-1,57,-1,59,61,63,65,67,69,71,73,75,77,79,81,83,-1,-1,-1,85,87,89,91,-1,-1,93,95,97,99,101,103,-1,-1,-1,-1,-1,-1,-1,-1,-1,-1,-1,-1,-1,-1,-1,-1,-1,-1,-1,-1,-1,-1,-1,-1,-1,-1,-1,-1,-1,-1,-1,-1,-1,-1,-1,-1,-1,-1,-1,-1,-1,-1,-1,-1,-1,-1],"loss_changes":[2.2704558E5,5.146365E4,5.823764E4,8.428454E3,1.5655594E4,2.289417E4,7.8849062E3,8.267013E3,2.6709492E3,1.3208406E4,5.4050547E3,2.6037193E4,3.2655312E3,3.4197153E3,5.1080312E3,2.4079321E3,3.6263184E3,8.359844E2,2.682374E3,2.3920273E3,6.830203E3,3.9947656E2,4.5480615E2,3.1091504E3,1.2738223E3,5.403379E2,3.310172E2,2.8142075E3,0E0,4.165172E3,0E0,3.7855068E3,1.1160745E3,4.1405415E3,1.0634895E3,8.799609E1,4.744126E2,1.5227129E3,2.7521934E3,7.9103125E2,4.215288E3,4.6319688E3,1.7114844E3,9.506289E2,0E0,0E0,0E0,6.141584E3,1.0586856E4,1.441998E3,8.1715234E2,0E0,0E0,1.2544165E2,6.1405624E1,8.630734E2,3.8175977E2,3.4999688E3,3.8828516E2,0E0,0E0,0E0,0E0,0E0,0E0,0E0,0E0,0E0,0E0,0E0,0E0,0E0,0E0,0E0,0E0,0E0,0E0,0E0,0E0,0E0,0E0,0E0,0E0,0E0,0E0,0E0,0E0,0E0,0E0,0E0,0E0,0E0,0E0,0E0,0E0,0E0,0E0,0E0,0E0,0E0,0E0,0E0,0E0,0E0,0E0],"parents":[2147483647,0,0,1,1,2,2,3,3,4,4,5,5,6,6,7,7,8,8,9,9,10,10,11,11,12,12,13,13,14,14,15,15,16,16,17,17,18,18,19,19,20,20,21,21,22,22,23,23,24,24,25,25,26,26,27,27,29,29,31,31,32,32,33,33,34,34,35,35,36,36,37,37,38,38,39,39,40,40,41,41,42,42,43,43,47,47,48,48,49,49,50,50,53,53,54,54,55,55,56,56,57,57,58,58],"right_children":[2,4,6,8,10,12,14,16,18,20,22,24,26,28,30,32,34,36,38,40,42,44,46,48,50,52,54,56,-1,58,-1,60,62,64,66,68,70,72,74,76,78,80,82,84,-1,-1,-1,86,88,90,92,-1,-1,94,96,98,100,102,104,-1,-1,-1,-1,-1,-1,-1,-1,-1,-1,-1,-1,-1,-1,-1,-1,-1,-1,-1,-1,-1,-1,-1,-1,-1,-1,-1,-1,-1,-1,-1,-1,-1,-1,-1,-1,-1,-1,-1,-1,-1,-1,-1,-1,-1,-1],"split_conditions":[2.02E1,4.28E-1,2.16E1,3.29E-1,3.06E1,1.6E1,6E0,4E0,4.76E1,1E1,1.41E1,2.3E1,4E0,2.4E1,1.7E1,2.96E-1,2.2E1,1.11E1,1.575E2,1E0,7E0,1.6E1,3.64E1,2.15E1,2.11E1,1.133E0,1.96E1,9.8E0,3.4361547E-1,2.88E-1,1.9986461E-1,1.89E1,7.3E0,1.8E1,5E-1,1.02E1,1.12E1,5.6E0,1.32E1,1.08E1,6E-1,1.921E2,5E-1,3.243E0,7.9542214E-1,1.461527E-1,3.5720184E-1,2.03E1,2.09E1,1.44E1,1.47E-1,3.8791782E-1,6.787461E-1,1.43E1,9.12E-1,3.2E-1,3.64E-1,2.8E0,9.4E0,3.9361334E-1,-2.4943388E-1,-2.3366615E-1,-2.4558804E-3,-1.2899497E-1,2.9525995E-1,-3.720594E-1,1.8632915E-2,3.584077E-1,2.442916E-1,9.768277E-3,1.8741316E-1,1.8457557E-1,-6.633689E-2,2.284695E-1,-8.066068E-2,4.615939E-1,6.442423E-1,-9.379429E-2,5.885579E-1,1.7309329E-1,3.820038E-1,1.8779251E-1,6.552169E-1,4.975533E-1,7.1496105E-1,-1.3505015E-1,-3.5626665E-1,1.6607578E-1,-1.621531E-1,3.683896E-1,-7.810473E-2,2.6022556E-1,7.1298736E-1,1.5579139E-1,3.551688E-1,-7.857612E-3,9.9396236E-2,-2.3536943E-1,9.794099E-2,-3.1181234E-1,-1.574985E-1,1.7687318E-1,-4.6017545E-1,-1.3234042E-1,-3.154297E-1],"split_indices":[3,13,3,13,15,15,8,8,16,2,2,4,8,4,6,13,4,2,16,9,8,6,15,4,3,13,15,2,0,13,0,3,12,3,0,2,2,12,2,12,0,16,13,13,0,0,0,3,3,2,13,0,0,2,13,13,13,15,2,0,0,0,0,0,0,0,0,0,0,0,0,0,0,0,0,0,0,0,0,0,0,0,0,0,0,0,0,0,0,0,0,0,0,0,0,0,0,0,0,0,0,0,0,0,0],"split_type":[0,0,0,0,0,0,0,0,0,0,0,0,0,0,0,0,0,0,0,0,0,0,0,0,0,0,0,0,0,0,0,0,0,0,0,0,0,0,0,0,0,0,0,0,0,0,0,0,0,0,0,0,0,0,0,0,0,0,0,0,0,0,0,0,0,0,0,0,0,0,0,0,0,0,0,0,0,0,0,0,0,0,0,0,0,0,0,0,0,0,0,0,0,0,0,0,0,0,0,0,0,0,0,0,0],"sum_hessian":[1.985E3,9.21E2,1.064E3,4.14E2,5.07E2,5.84E2,4.8E2,1.91E2,2.23E2,4.04E2,1.03E2,5.44E2,4E1,6.9E1,4.11E2,1.27E2,6.4E1,9.5E1,1.28E2,8.7E1,3.17E2,8.1E1,2.2E1,5.1E2,3.4E1,2.2E1,1.8E1,6.5E1,4E0,4.06E2,5E0,6.7E1,6E1,5.4E1,1E1,3.8E1,5.7E1,6E1,6.8E1,7.4E1,1.3E1,2.94E2,2.3E1,6.2E1,1.9E1,9E0,1.3E1,2.98E2,2.12E2,2.2E1,1.2E1,1.2E1,1E1,1E1,8E0,1.6E1,4.9E1,2.86E2,1.2E2,3E0,6.4E1,9E0,5.1E1,1.1E1,4.3E1,5E0,5E0,1.4E1,2.4E1,7E0,5E1,1.1E1,4.9E1,5.4E1,1.4E1,3.6E1,3.8E1,7E0,6E0,2.42E2,5.2E1,5E0,1.8E1,3.6E1,2.6E1,2.34E2,6.4E1,5.1E1,1.61E2,1.9E1,3E0,4E0,8E0,7E0,3E0,3E0,5E0,3E0,1.3E1,3.7E1,1.2E1,3E0,2.83E2,7E0,1.13E2],"tree_param":{"num_deleted":"0","num_feature":"17","num_nodes":"105","size_leaf_vector":"1"}},{"base_weights":[-1.9651932E-1,-1.5503097E1,8.390686E0,-7.2955213E0,-2.0022425E1,1.1346729E1,-8.243184E0,-9.504247E0,4.022225E0,-2.1266197E1,-1.0939412E1,8.978249E0,2.4789705E1,-1.0416026E1,2.2293888E1,-9.901793E0,1.1523601E-1,-1.8960777E-1,6.108535E0,-1.9161018E1,-4.634848E-1,-2.3476968E0,-1.2497282E1,4.6757464E0,1.539517E1,2.8100756E1,1.41490345E1,4.6618178E-1,-1.112446E1,1.4779371E-1,2.600618E1,-1.185965E1,-6.6429505E0,1.8676495E1,2.5467942E0,-1.1574315E1,-1.976998E1,-5.845656E0,8.621311E-2,-6.841911E0,-1.4186797E1,-9.809341E-2,9.774972E0,2.587885E1,1.3254322E1,2.301898E1,3.1014599E1,1.1525767E1,5.411984E-1,-1.2368217E1,-2.3043294E0,6.4158005E-1,3.315559E-1,-1.9394681E-1,-3.916343E-1,-5.7076562E-2,-2.1501127E-1,6.4131476E-2,6.6589546E-1,9.6978255E-2,-6.682722E-2,-6.9779836E-2,-2.6086769E-1,-4.2034948E-1,-3.179467E-1,3.1625867E-2,-2.372238E-1,-4.4847667E-2,-2.7425355E-1,-3.0479118E-1,-9.14352E-2,-2.7735366E-2,2.6600096E-1,3.224242E-1,1.06108986E-1,5.4639506E-1,8.4735475E-2,4.5838687E-1,2.3677972E-1,2.6865453E-1,5.8758837E-1,7.7342725E-1,5.449473E-1,2.671808E-1,9.4461694E-2,-1.418606E-1,-2.923439E-1,-1.0210577E-1,2.4453098E-1],"categories":[],"categories_nodes":[],"categories_segments":[],"categories_sizes":[],"default_left":[0,0,0,0,0,0,0,0,0,0,0,0,0,0,0,0,0,0,0,0,0,0,0,0,0,0,0,0,0,0,0,0,0,0,0,0,0,0,0,0,0,0,0,0,0,0,0,0,0,0,0,0,0,0,0,0,0,0,0,0,0,0,0,0,0,0,0,0,0,0,0,0,0,0,0,0,0,0,0,0,0,0,0,0,0,0,0,0,0],"id":14,"left_children":[1,3,5,7,9,11,13,15,17,19,21,23,25,27,29,31,-1,-1,33,35,-1,37,39,41,43,45,47,-1,49,-1,51,53,55,57,59,61,63,65,-1,67,69,71,73,75,77,79,81,83,-1,85,87,-1,-1,-1,-1,-1,-1,-1,-1,-1,-1,-1,-1,-1,-1,-1,-1,-1,-1,-1,-1,-1,-1,-1,-1,-1,-1,-1,-1,-1,-1,-1,-1,-1,-1,-1,-1,-1,-1],"loss_changes":[2.5893828E5,2.611011E4,6.2147266E4,6.3637656E3,4.9124375E3,3.390253E4,1.2903116E4,1.3445E3,1.2404036E3,1.1542031E3,7.3062305E2,2.5130852E4,5.231039E3,4.533537E3,5.204165E2,1.2382461E3,0E0,0E0,1.6044512E3,6.704219E2,0E0,2.5841208E2,3.5736182E2,1.3342794E4,7.8636562E3,1.0669766E3,1.035144E3,0E0,1.8993027E3,0E0,3.1039062E1,1.9415312E3,1.2117388E3,1.6950864E3,4.2316037E2,1.5310962E2,5.2809375E2,3.335515E2,0E0,3.768896E2,2.907705E2,4.9195625E3,7.4268184E3,1.7801758E3,3.9075586E3,2.5234863E3,1.0676406E3,3.697788E2,0E0,1.719E3,9.971049E2,0E0,0E0,0E0,0E0,0E0,0E0,0E0,0E0,0E0,0E0,0E0,0E0,0E0,0E0,0E0,0E0,0E0,0E0,0E0,0E0,0E0,0E0,0E0,0E0,0E0,0E0,0E0,0E0,0E0,0E0,0E0,0E0,0E0,0E0,0E0,0E0,0E0,0E0],"parents":[2147483647,0,0,1,1,2,2,3,3,4,4,5,5,6,6,7,7,8,8,9,9,10,10,11,11,12,12,13,13,14,14,15,15,18,18,19,19,21,21,22,22,23,23,24,24,25,25,26,26,28,28,30,30,31,31,32,32,33,33,34,34,35,35,36,36,37,37,39,39,40,40,41,41,42,42,43,43,44,44,45,45,46,46,47,47,49,49,50,50],"right_children":[2,4,6,8,10,12,14,16,18,20,22,24,26,28,30,32,-1,-1,34,36,-1,38,40,42,44,46,48,-1,50,-1,52,54,56,58,60,62,64,66,-1,68,70,72,74,76,78,80,82,84,-1,86,88,-1,-1,-1,-1,-1,-1,-1,-1,-1,-1,-1,-1,-1,-1,-1,-1,-1,-1,-1,-1,-1,-1,-1,-1,-1,-1,-1,-1,-1,-1,-1,-1,-1,-1,-1,-1,-1,-1],"split_conditions":[4E-1,2.03E1,2.13E1,8.9E0,1.7E1,2.21E1,8E-1,1.55E1,1.99E1,2.18E1,9.8E0,8.6E0,1.41E1,8E0,3.5E0,1E0,1.1523601E-1,-1.8960777E-1,1.05E1,3.2E0,-4.634848E-1,4E-1,3E0,1.3E0,9.4E0,3.06E1,3.6E0,4.6618178E-1,1.7E1,1.4779371E-1,2.16E1,3E0,6E0,6E0,1.8E1,1.33E1,5.6E0,9.5E0,8.621311E-2,1.42E1,1.49E1,1.44E1,2.2E1,6E0,2E1,1.91E1,1.22E1,1.97E1,5.411984E-1,2.15E1,1.23E1,6.4158005E-1,3.315559E-1,-1.9394681E-1,-3.916343E-1,-5.7076562E-2,-2.1501127E-1,6.4131476E-2,6.6589546E-1,9.6978255E-2,-6.682722E-2,-6.9779836E-2,-2.6086769E-1,-4.2034948E-1,-3.179467E-1,3.1625867E-2,-2.372238E-1,-4.4847667E-2,-2.7425355E-1,-3.0479118E-1,-9.14352E-2,-2.7735366E-2,2.6600096E-1,3.224242E-1,1.06108986E-1,5.4639506E-1,8.4735475E-2,4.5838687E-1,2.3677972E-1,2.6865453E-1,5.8758837E-1,7.7342725E-1,5.449473E-1,2.671808E-1,9.4461694E-2,-1.418606E-1,-2.923439E-1,-1.0210577E-1,2.4453098E-1],"split_indices":[14,3,3,12,6,15,14,2,3,3,2,12,2,6,15,11,0,0,2,15,0,0,7,14,2,15,14,0,6,0,3,15,15,6,6,2,15,2,0,2,2,15,4,8,3,3,2,3,0,3,2,0,0,0,0,0,0,0,0,0,0,0,0,0,0,0,0,0,0,0,0,0,0,0,0,0,0,0,0,0,0,0,0,0,0,0,0,0,0],"split_type":[0,0,0,0,0,0,0,0,0,0,0,0,0,0,0,0,0,0,0,0,0,0,0,0,0,0,0,0,0,0,0,0,0,0,0,0,0,0,0,0,0,0,0,0,0,0,0,0,0,0,0,0,0,0,0,0,0,0,0,0,0,0,0,0,0,0,0,0,0,0,0,0,0,0,0,0,0,0,0,0,0,0,0,0,0,0,0,0,0],"sum_hessian":[1.968E3,7.07E2,1.261E3,2.52E2,4.55E2,1.071E3,1.9E2,2.11E2,4.1E1,3.99E2,5.6E1,9.12E2,1.59E2,1.78E2,1.2E1,2.06E2,5E0,5E0,3.6E1,1.95E2,2.04E2,9E0,4.7E1,5.47E2,3.65E2,1.2E2,3.9E1,3E0,1.75E2,3E0,9E0,1.27E2,7.9E1,7E0,2.9E1,1.6E1,1.79E2,6E0,3E0,1.2E1,3.5E1,2.83E2,2.64E2,6E1,3.05E2,4.7E1,7.3E1,3.4E1,5E0,1.53E2,2.2E1,4E0,5E0,1.01E2,2.6E1,4.2E1,3.7E1,4E0,3E0,2.1E1,8E0,3E0,1.3E1,1.32E2,4.7E1,3E0,3E0,8E0,4E0,3.1E1,4E0,2.59E2,2.4E1,1.08E2,1.56E2,5.6E1,4E0,3.7E1,2.68E2,2E1,2.7E1,2.1E1,5.2E1,2.6E1,8E0,4.7E1,1.06E2,1.9E1,3E0],"tree_param":{"num_deleted":"0","num_feature":"17","num_nodes":"89","size_leaf_vector":"1"}},{"base_weights":[6.832351E-2,1.09728565E1,-9.720367E0,1.3914372E0,1.6725565E1,-4.1647205E0,-1.942012E1,7.046571E0,-1.780733E0,1.4144462E1,2.7770855E1,-5.414322E0,1.8996014E1,-2.073557E1,-1.182418E1,8.9031105E0,-2.1253936E0,-5.5915365E0,5.6139483E0,1.0906995E1,2.0974642E1,3.1726994E1,1.5756441E1,-7.215342E0,1.3826416E1,8.452848E0,2.3028463E1,-7.8673344E0,-2.1254202E1,-9.795977E-1,-2.8117785E-1,1.042171E1,-1.8295889E-1,-2.362211E-1,1.4063336E0,-1.0110275E1,-4.8207313E-1,9.889605E0,-8.939015E0,7.4106135E0,1.5539023E1,1.7661842E1,2.676318E1,7.7631485E-1,2.8925346E1,1.7168045E1,1.4901242E-1,-3.438162E0,-9.03109E0,2.4375187E1,3.8852272E0,-1.6418185E-2,2.7795964E-1,1.5525383E1,6.0932314E-1,5.3939573E-2,-1.1011872E1,-2.1480558E1,-6.492443E-2,-5.914167E0,1.816888E-1,4.1424048E-1,1.8040337E-1,-1.3761209E-1,2.4186437E-1,1.2589966E-1,-3.628584E-2,-2.8524056E-1,-4.0633056E-2,-3.315493E-1,1.9708363E-2,2.8967434E-1,-2.3747192E-1,-2.587845E-1,8.018757E-2,2.0867988E-1,-5.763766E-2,5.883833E-1,2.6420352E-1,4.008163E-1,-2.478247E-2,5.6137556E-1,1.7151375E-1,6.087662E-1,4.3099186E-1,2.4537955E-1,3.8552436E-1,-1.2987302E-1,2.220819E-1,1.4588024E-1,-1.8703073E-1,5.988669E-1,2.4903598E-1,2.4128693E-1,4.1719884E-2,3.9928856E-1,7.0044346E-2,-3.0653742E-1,-5.457001E-2,-4.521091E-1,-3.6341414E-1,2.7875384E-2,-2.724109E-1],"categories":[],"categories_nodes":[],"categories_segments":[],"categories_sizes":[],"default_left":[0,0,0,0,0,0,0,0,0,0,0,0,0,0,0,0,0,0,0,0,0,0,0,0,0,0,0,0,0,0,0,0,0,0,0,0,0,0,0,0,0,0,0,0,0,0,0,0,0,0,0,0,0,0,0,0,0,0,0,0,0,0,0,0,0,0,0,0,0,0,0,0,0,0,0,0,0,0,0,0,0,0,0,0,0,0,0,0,0,0,0,0,0,0,0,0,0,0,0,0,0,0,0],"id":15,"left_children":[1,3,5,7,9,11,13,15,17,19,21,23,25,27,29,31,33,35,37,39,41,43,45,47,49,51,53,55,57,59,-1,61,63,-1,65,67,69,71,73,75,77,79,81,-1,83,85,-1,87,89,91,93,-1,-1,95,-1,-1,97,99,-1,101,-1,-1,-1,-1,-1,-1,-1,-1,-1,-1,-1,-1,-1,-1,-1,-1,-1,-1,-1,-1,-1,-1,-1,-1,-1,-1,-1,-1,-1,-1,-1,-1,-1,-1,-1,-1,-1,-1,-1,-1,-1,-1,-1],"loss_changes":[2.0985317E5,5.123389E4,5.574279E4,6.2922676E3,1.6162547E4,1.920165E4,3.5153281E3,2.1658198E3,6.371813E3,1.0224055E4,4.6714453E3,2.1825842E4,1.2445498E3,1.9625938E3,1.3888223E3,1.4527559E3,7.712477E2,3.433169E3,4.879801E3,5.1113516E3,2.4140469E3,4.723672E2,2.071748E2,3.9031816E3,5.5624814E3,5.694898E2,8.571387E2,4.9644006E2,1.1767031E3,5.993715E2,0E0,1.1052344E3,1.3977101E3,0E0,2.7997372E2,2.617461E3,1.6964634E3,6.17145E3,9.8599756E2,5.8195527E3,4.0636562E3,4.480119E3,1.01047266E3,0E0,2.5542969E1,5.0649414E0,0E0,8.424723E3,2.0931445E3,1.3448477E3,3.9877197E2,0E0,0E0,6.7258594E2,0E0,0E0,3.4773975E2,7.092344E2,0E0,4.71971E2,0E0,0E0,0E0,0E0,0E0,0E0,0E0,0E0,0E0,0E0,0E0,0E0,0E0,0E0,0E0,0E0,0E0,0E0,0E0,0E0,0E0,0E0,0E0,0E0,0E0,0E0,0E0,0E0,0E0,0E0,0E0,0E0,0E0,0E0,0E0,0E0,0E0,0E0,0E0,0E0,0E0,0E0,0E0],"parents":[2147483647,0,0,1,1,2,2,3,3,4,4,5,5,6,6,7,7,8,8,9,9,10,10,11,11,12,12,13,13,14,14,15,15,16,16,17,17,18,18,19,19,20,20,21,21,22,22,23,23,24,24,25,25,26,26,27,27,28,28,29,29,31,31,32,32,34,34,35,35,36,36,37,37,38,38,39,39,40,40,41,41,42,42,44,44,45,45,47,47,48,48,49,49,50,50,53,53,56,56,57,57,59,59],"right_children":[2,4,6,8,10,12,14,16,18,20,22,24,26,28,30,32,34,36,38,40,42,44,46,48,50,52,54,56,58,60,-1,62,64,-1,66,68,70,72,74,76,78,80,82,-1,84,86,-1,88,90,92,94,-1,-1,96,-1,-1,98,100,-1,102,-1,-1,-1,-1,-1,-1,-1,-1,-1,-1,-1,-1,-1,-1,-1,-1,-1,-1,-1,-1,-1,-1,-1,-1,-1,-1,-1,-1,-1,-1,-1,-1,-1,-1,-1,-1,-1,-1,-1,-1,-1,-1,-1],"split_conditions":[2.02E1,3.96E-1,2.17E1,1.18E1,3.06E1,2.3E1,3.2E-1,9.02E1,4E0,9.5E0,1.39E1,1.43E1,4.2E0,1.1E1,9.8E0,1E0,2.08E1,7.3E0,2.2E1,1.12E1,5.88E-1,1.19E1,1.69E1,1.1E1,4E0,6.12E1,2.1E1,2.4E0,2.688E2,1.56E2,-2.8117785E-1,5.27E1,8.1E1,-2.362211E-1,9.22E1,2.032E2,1.99E1,2.244E2,2.3E1,5.52E-1,2E0,1E0,2.15E1,7.7631485E-1,1.87E1,3.78E1,1.4901242E-1,2.15E1,8.9E0,1.728E2,6.39E-1,-1.6418185E-2,2.7795964E-1,2.07E1,6.0932314E-1,5.3939573E-2,6E-2,2.61E-1,-6.492443E-2,7.12E1,1.816888E-1,4.1424048E-1,1.8040337E-1,-1.3761209E-1,2.4186437E-1,1.2589966E-1,-3.628584E-2,-2.8524056E-1,-4.0633056E-2,-3.315493E-1,1.9708363E-2,2.8967434E-1,-2.3747192E-1,-2.587845E-1,8.018757E-2,2.0867988E-1,-5.763766E-2,5.883833E-1,2.6420352E-1,4.008163E-1,-2.478247E-2,5.6137556E-1,1.7151375E-1,6.087662E-1,4.3099186E-1,2.4537955E-1,3.8552436E-1,-1.2987302E-1,2.220819E-1,1.4588024E-1,-1.8703073E-1,5.988669E-1,2.4903598E-1,2.4128693E-1,4.1719884E-2,3.9928856E-1,7.0044346E-2,-3.0653742E-1,-5.457001E-2,-4.521091E-1,-3.6341414E-1,2.7875384E-2,-2.724109E-1],"split_indices":[3,13,3,2,15,4,13,5,8,12,2,15,15,6,2,9,16,12,4,15,13,2,2,6,8,5,3,12,16,16,0,5,5,0,5,16,3,16,4,13,8,9,4,0,3,15,0,4,2,16,13,0,0,3,0,0,13,13,0,5,0,0,0,0,0,0,0,0,0,0,0,0,0,0,0,0,0,0,0,0,0,0,0,0,0,0,0,0,0,0,0,0,0,0,0,0,0,0,0,0,0,0,0],"split_type":[0,0,0,0,0,0,0,0,0,0,0,0,0,0,0,0,0,0,0,0,0,0,0,0,0,0,0,0,0,0,0,0,0,0,0,0,0,0,0,0,0,0,0,0,0,0,0,0,0,0,0,0,0,0,0,0,0,0,0,0,0,0,0,0,0,0,0,0,0,0,0,0,0,0,0,0,0,0,0,0,0,0,0,0,0,0,0,0,0,0,0,0,0,0,0,0,0,0,0,0,0,0,0],"sum_hessian":[1.964E3,9.29E2,1.035E3,3.49E2,5.8E2,6.59E2,3.76E2,1.25E2,2.24E2,4.72E2,1.08E2,6.26E2,3.3E1,3.19E2,5.7E1,1.04E2,2.1E1,1.48E2,7.6E1,3.22E2,1.5E2,8E1,2.8E1,5.73E2,5.3E1,1E1,2.3E1,1.3E1,3.06E2,1E1,4.7E1,8.9E1,1.5E1,5E0,1.6E1,7.8E1,7E1,5.9E1,1.7E1,1.85E2,1.37E2,9.8E1,5.2E1,1.9E1,6.1E1,2.3E1,5E0,1.87E2,3.86E2,2.5E1,2.8E1,4E0,6E0,1.3E1,1E1,3E0,1E1,3.02E2,4E0,7E0,3E0,9E0,8E1,1E1,5E0,6E0,1E1,5.1E1,2.7E1,5E0,6.5E1,4.9E1,1E1,1.3E1,4E0,1.43E2,4.2E1,1.8E1,1.19E2,8.7E1,1.1E1,4.8E1,4E0,4.8E1,1.3E1,9E0,1.4E1,1.55E2,3.2E1,7E0,3.79E2,1.6E1,9E0,4E0,2.4E1,9E0,4E0,6E0,4E0,2.21E2,8.1E1,4E0,3E0],"tree_param":{"num_deleted":"0","num_feature":"17","num_nodes":"103","size_leaf_vector":"1"}},{"base_weights":[-6.617232E-2,1.0932151E1,-9.799712E0,7.42458E0,1.9062859E1,-3.4542446E0,-1.7417324E1,5.775355E-1,1.4099097E1,2.6872786E1,1.4877324E1,2.2418983E1,-4.958606E0,-7.368146E0,-1.9204472E1,8.107436E0,-2.239634E0,1.0172142E1,2.0285912E1,1.3301134E1,3.0130922E1,9.41936E0,1.9993427E1,1.2569575E1,2.8823025E1,-7.0120683E0,1.330646E1,3.9760482E-1,-8.843876E0,-2.1364075E1,-1.4135917E1,6.1058555E0,6.748841E-1,2.588378E1,-3.1093853E0,1.6047348E1,7.757745E0,-1.23525836E-1,2.1451351E1,-6.559841E-2,1.6431904E1,7.872321E-1,2.7557367E1,4.9572444E0,1.5272272E1,2.2565784E1,6.351871E0,3.9386358E0,3.7050903E-1,6.543167E-1,2.4237098E-1,-7.530576E0,6.645947E0,2.1642334E1,5.909683E0,-4.5168746E-1,-1.22559595E1,-2.5106356E-2,-2.1655514E1,2.4310723E-3,-1.450112E1,-2.0321134E-2,2.0202154E-1,2.5635663E-1,6.485756E-1,-1.7420778E-1,2.4544888E-3,3.642791E-1,-4.0036872E-2,-9.600973E-2,1.727705E-1,4.4799578E-1,6.0955934E-2,5.463149E-1,2.4268486E-1,6.055771E-1,3.2098964E-1,3.7905228E-1,4.7091465E-2,3.8742492E-1,1.8115167E-1,2.0955989E-1,4.9708548E-1,-1.02263935E-1,2.1232653E-1,-2.988705E-2,1.6873929E-1,-9.224791E-2,-1.8698068E-1,4.0460563E-1,-1.8327947E-1,2.639882E-1,4.8362562E-1,6.883083E-2,3.504416E-1,-7.579102E-2,2.9263243E-1,-2.6941597E-1,-1.4741944E-1,-4.5593318E-1,-3.7489727E-1,1.7494431E-3,-2.9768384E-1],"categories":[],"categories_nodes":[],"categories_segments":[],"categories_sizes":[],"default_left":[0,0,0,0,0,0,0,0,0,0,0,0,0,0,0,0,0,0,0,0,0,0,0,0,0,0,0,0,0,0,0,0,0,0,0,0,0,0,0,0,0,0,0,0,0,0,0,0,0,0,0,0,0,0,0,0,0,0,0,0,0,0,0,0,0,0,0,0,0,0,0,0,0,0,0,0,0,0,0,0,0,0,0,0,0,0,0,0,0,0,0,0,0,0,0,0,0,0,0,0,0,0,0],"id":16,"left_children":[1,3,5,7,9,11,13,15,17,19,21,23,25,27,29,31,33,35,37,39,41,43,45,47,49,51,53,-1,55,57,59,61,-1,63,65,67,69,-1,71,-1,73,-1,75,77,79,81,83,85,-1,-1,-1,87,89,91,93,95,97,-1,99,-1,101,-1,-1,-1,-1,-1,-1,-1,-1,-1,-1,-1,-1,-1,-1,-1,-1,-1,-1,-1,-1,-1,-1,-1,-1,-1,-1,-1,-1,-1,-1,-1,-1,-1,-1,-1,-1,-1,-1,-1,-1,-1,-1],"loss_changes":[2.070396E5,2.5748453E4,4.9529758E4,2.9054574E4,8.515875E3,2.19433E4,8.222234E3,6.701428E3,7.61066E3,3.7470625E3,4.8320234E3,1.5847842E3,2.0008064E4,3.0688235E3,4.0146094E3,4.1990024E3,5.701813E3,2.6935781E3,3.9597188E3,1.0947556E3,6.8359375E2,2.244603E3,3.079246E3,6.422097E2,7.6505664E2,3.4353203E3,3.1961553E3,0E0,1.967727E3,1.5798594E3,6.3466797E2,2.316823E3,0E0,1.7390088E2,4.0578716E3,2.2687178E3,1.6239668E3,0E0,2.0037383E3,0E0,4.558296E2,0E0,1.4465273E3,1.8452312E3,7.868633E2,1.8625469E3,8.3766034E2,1.850719E2,0E0,0E0,0E0,2.4004238E3,4.053413E3,2.0924805E2,7.9533545E2,1.1105455E3,1.8732764E2,0E0,4.645E2,0E0,6.637031E2,0E0,0E0,0E0,0E0,0E0,0E0,0E0,0E0,0E0,0E0,0E0,0E0,0E0,0E0,0E0,0E0,0E0,0E0,0E0,0E0,0E0,0E0,0E0,0E0,0E0,0E0,0E0,0E0,0E0,0E0,0E0,0E0,0E0,0E0,0E0,0E0,0E0,0E0,0E0,0E0,0E0,0E0],"parents":[2147483647,0,0,1,1,2,2,3,3,4,4,5,5,6,6,7,7,8,8,9,9,10,10,11,11,12,12,13,13,14,14,15,15,16,16,17,17,18,18,19,19,20,20,21,21,22,22,23,23,24,24,25,25,26,26,28,28,29,29,30,30,31,31,33,33,34,34,35,35,36,36,38,38,40,40,42,42,43,43,44,44,45,45,46,46,47,47,51,51,52,52,53,53,54,54,55,55,56,56,58,58,60,60],"right_children":[2,4,6,8,10,12,14,16,18,20,22,24,26,28,30,32,34,36,38,40,42,44,46,48,50,52,54,-1,56,58,60,62,-1,64,66,68,70,-1,72,-1,74,-1,76,78,80,82,84,86,-1,-1,-1,88,90,92,94,96,98,-1,100,-1,102,-1,-1,-1,-1,-1,-1,-1,-1,-1,-1,-1,-1,-1,-1,-1,-1,-1,-1,-1,-1,-1,-1,-1,-1,-1,-1,-1,-1,-1,-1,-1,-1,-1,-1,-1,-1,-1,-1,-1,-1,-1,-1],"split_conditions":[2.02E1,1.04E1,2.16E1,8.5E0,1.87E1,1E0,6E0,1.89E1,9.8E0,1.1E1,1.3E1,2.08E1,1.44E1,4E0,5E0,1.87E1,2.1E0,7.17E1,2E0,1.3E0,4E0,2.4E0,2.62E2,7.5E0,7.65E1,6E0,4E0,3.9760482E-1,1.752E2,1.1E1,3.83E1,1.79E1,6.748841E-1,4E-1,6.8E0,2.006E2,7.48E1,-1.23525836E-1,1E0,-6.559841E-2,1.6E0,7.872321E-1,1.82E1,2E0,1.729E2,1.91E1,1.2E0,4E-1,3.7050903E-1,6.543167E-1,2.4237098E-1,1.386E2,7.23E1,6.52E1,1.976E2,1.703E2,6.9E0,-2.5106356E-2,1.03E1,2.4310723E-3,4E-1,-2.0321134E-2,2.0202154E-1,2.5635663E-1,6.485756E-1,-1.7420778E-1,2.4544888E-3,3.642791E-1,-4.0036872E-2,-9.600973E-2,1.727705E-1,4.4799578E-1,6.0955934E-2,5.463149E-1,2.4268486E-1,6.055771E-1,3.2098964E-1,3.7905228E-1,4.7091465E-2,3.8742492E-1,1.8115167E-1,2.0955989E-1,4.9708548E-1,-1.02263935E-1,2.1232653E-1,-2.988705E-2,1.6873929E-1,-9.224791E-2,-1.8698068E-1,4.0460563E-1,-1.8327947E-1,2.639882E-1,4.8362562E-1,6.883083E-2,3.504416E-1,-7.579102E-2,2.9263243E-1,-2.6941597E-1,-1.4741944E-1,-4.5593318E-1,-3.7489727E-1,1.7494431E-3,-2.9768384E-1],"split_indices":[3,15,3,12,3,8,8,3,12,6,6,3,15,7,15,3,12,5,8,0,8,0,16,12,5,7,8,0,16,6,5,3,0,0,12,16,5,0,10,0,0,0,3,8,16,3,0,0,0,0,0,16,5,5,16,16,15,0,12,0,0,0,0,0,0,0,0,0,0,0,0,0,0,0,0,0,0,0,0,0,0,0,0,0,0,0,0,0,0,0,0,0,0,0,0,0,0,0,0,0,0,0,0],"split_type":[0,0,0,0,0,0,0,0,0,0,0,0,0,0,0,0,0,0,0,0,0,0,0,0,0,0,0,0,0,0,0,0,0,0,0,0,0,0,0,0,0,0,0,0,0,0,0,0,0,0,0,0,0,0,0,0,0,0,0,0,0,0,0,0,0,0,0,0,0,0,0,0,0,0,0,0,0,0,0,0,0,0,0,0,0,0,0,0,0,0,0,0,0,0,0,0,0,0,0,0,0,0,0],"sum_hessian":[1.932E3,9.07E2,1.025E3,6.35E2,2.72E2,5.6E2,4.65E2,3.14E2,3.21E2,9.3E1,1.79E2,3E1,5.3E2,7.1E1,3.94E2,8.5E1,2.29E2,1.98E2,1.23E2,1.9E1,7.4E1,8.8E1,9.1E1,1.3E1,1.7E1,4.77E2,5.3E1,3E0,6.8E1,2.74E2,1.2E2,8E1,5E0,6E0,2.23E2,5.6E1,1.42E2,5E0,1.18E2,3E0,1.6E1,1.3E1,6.1E1,5.1E1,3.7E1,7.6E1,1.5E1,6E0,7E0,1.3E1,4E0,4.6E2,1.7E1,2.4E1,2.9E1,2E1,4.8E1,4E0,2.7E2,3E0,1.17E2,2.9E1,5.1E1,3E0,3E0,8.1E1,1.42E2,5E1,6E0,9E0,1.33E2,1.12E2,6E0,3E0,1.3E1,4.8E1,1.3E1,7E0,4.4E1,2.1E1,1.6E1,1.3E1,6.3E1,4E0,1.1E1,3E0,3E0,1.78E2,2.82E2,9E0,8E0,7E0,1.7E1,2.5E1,4E0,1.7E1,3E0,3.7E1,1.1E1,1.89E2,8.1E1,3E0,1.14E2],"tree_param":{"num_deleted":"0","num_feature":"17","num_nodes":"103","size_leaf_vector":"1"}},{"base_weights":[-1.462227E-1,6.0447893E0,-1.6605356E1,-2.962446E0,1.2437331E1,-2.0421488E1,-1.1788632E1,-5.4932637E0,8.358077E0,9.935246E0,2.407287E1,-1.2027258E1,-2.1218576E1,2.0146162E1,-1.2987869E1,-3.9103572E0,-1.6557865E1,1.3530148E1,-1.9269807E0,1.524647E1,4.2575436E0,2.8232445E1,1.2339184E1,-6.6570304E-2,-1.2929966E1,-7.2980426E-2,-2.140226E1,5.9087664E-1,1.335852E-1,-4.398817E0,-1.44033E1,-7.0702987E0,9.747643E-1,-1.0602758E1,-4.5102316E-1,7.762861E0,1.8770477E1,-1.1051173E1,7.2881055E0,1.1061613E1,2.3591467E1,2.5165572E0,2.1074327E1,2.1632225E1,3.1007448E1,3.1481007E-1,6.799721E0,-2.8013363E-1,-7.451079E-2,-1.7981495E-1,-2.150889E1,2.1998703E0,-7.2482643E0,-1.7356361E1,-1.2674257E1,1.7996761E-1,-1.8308932E-1,-8.9422874E-2,9.15945E-2,-4.4354446E-2,-2.8608483E-1,-2.5352925E-1,3.010575E-1,4.2028022E-1,-9.884355E-2,-3.0460575E-1,-3.3652976E-2,3.2454345E-2,3.8518652E-1,2.498971E-1,-3.1681374E-2,3.7196872E-1,5.115702E-1,7.359233E-3,4.002731E-1,1.8505596E-1,6.610754E-1,5.314594E-1,2.965193E-1,6.3456964E-1,2.9631352E-1,1.8158077E-1,-8.929004E-3,-3.79136E-1,-4.453332E-1,-5.0610512E-2,2.232139E-1,-1.8960239E-1,1.24620795E-1,-4.225315E-1,-2.9575747E-1,-6.461764E-2,-2.6060483E-1],"categories":[],"categories_nodes":[],"categories_segments":[],"categories_sizes":[],"default_left":[0,0,0,0,0,0,0,0,0,0,0,0,0,0,0,0,0,0,0,0,0,0,0,0,0,0,0,0,0,0,0,0,0,0,0,0,0,0,0,0,0,0,0,0,0,0,0,0,0,0,0,0,0,0,0,0,0,0,0,0,0,0,0,0,0,0,0,0,0,0,0,0,0,0,0,0,0,0,0,0,0,0,0,0,0,0,0,0,0,0,0,0,0],"id":17,"left_children":[1,3,5,7,9,11,13,15,17,19,21,23,25,27,29,31,33,35,37,39,41,43,45,-1,47,-1,49,-1,-1,51,53,55,57,59,-1,61,63,65,67,69,71,73,75,77,79,-1,81,-1,-1,-1,83,85,87,89,91,-1,-1,-1,-1,-1,-1,-1,-1,-1,-1,-1,-1,-1,-1,-1,-1,-1,-1,-1,-1,-1,-1,-1,-1,-1,-1,-1,-1,-1,-1,-1,-1,-1,-1,-1,-1,-1,-1],"loss_changes":[1.9870305E5,8.162835E4,9.550031E3,1.6920295E4,2.3888781E4,1.7186641E3,9.375004E3,8.373016E3,5.773458E3,2.0557594E4,6.7693594E3,1.7357861E2,7.850156E2,9.3444214E2,2.729043E3,6.537834E3,1.895707E3,2.025E3,3.1922627E3,1.2059789E4,9.662473E3,1.2784922E3,6.421201E2,0E0,1.9203467E2,0E0,1.5255469E2,0E0,0E0,6.5624384E2,7.798906E2,8.689288E3,3.2990898E3,9.581592E2,0E0,5.5553984E3,2.0754746E3,7.1488086E2,1.2531819E3,4.3174375E3,6.762461E2,1.1342005E4,4.0757754E3,7.747295E2,3.72875E2,0E0,2.865575E2,0E0,0E0,0E0,7.8265625E1,4.9623923E2,7.817333E2,3.5826172E2,3.849414E2,0E0,0E0,0E0,0E0,0E0,0E0,0E0,0E0,0E0,0E0,0E0,0E0,0E0,0E0,0E0,0E0,0E0,0E0,0E0,0E0,0E0,0E0,0E0,0E0,0E0,0E0,0E0,0E0,0E0,0E0,0E0,0E0,0E0,0E0,0E0,0E0,0E0,0E0],"parents":[2147483647,0,0,1,1,2,2,3,3,4,4,5,5,6,6,7,7,8,8,9,9,10,10,11,11,12,12,13,13,14,14,15,15,16,16,17,17,18,18,19,19,20,20,21,21,22,22,24,24,26,26,29,29,30,30,31,31,32,32,33,33,35,35,36,36,37,37,38,38,39,39,40,40,41,41,42,42,43,43,44,44,46,46,50,50,51,51,52,52,53,53,54,54],"right_children":[2,4,6,8,10,12,14,16,18,20,22,24,26,28,30,32,34,36,38,40,42,44,46,-1,48,-1,50,-1,-1,52,54,56,58,60,-1,62,64,66,68,70,72,74,76,78,80,-1,82,-1,-1,-1,84,86,88,90,92,-1,-1,-1,-1,-1,-1,-1,-1,-1,-1,-1,-1,-1,-1,-1,-1,-1,-1,-1,-1,-1,-1,-1,-1,-1,-1,-1,-1,-1,-1,-1,-1,-1,-1,-1,-1,-1,-1],"split_conditions":[2.14E1,3.52E-1,4E-1,2.15E1,2.38E1,1E0,4.2E0,2.03E1,6E0,1E0,1.39E1,8.9E0,4E0,2.17E1,4E0,8E0,1E0,2.02E1,1.51E1,5.05E-1,7E0,3.23E1,1.58E1,-6.6570304E-2,1.26E1,-7.2980426E-2,3.1E0,5.9087664E-1,1.335852E-1,9.8E0,6.3E0,1.94E1,2.68E-1,1.35E1,-4.5102316E-1,4E0,1.936E2,7.6E0,2.12E1,1E0,5.52E-1,2.3E1,1.14E1,1.9E0,1.9E1,3.1481007E-1,1.99E1,-2.8013363E-1,-7.451079E-2,-1.7981495E-1,1.14E1,9E0,1.68E1,2.8E-1,4.8E0,1.7996761E-1,-1.8308932E-1,-8.9422874E-2,9.15945E-2,-4.4354446E-2,-2.8608483E-1,-2.5352925E-1,3.010575E-1,4.2028022E-1,-9.884355E-2,-3.0460575E-1,-3.3652976E-2,3.2454345E-2,3.8518652E-1,2.498971E-1,-3.1681374E-2,3.7196872E-1,5.115702E-1,7.359233E-3,4.002731E-1,1.8505596E-1,6.610754E-1,5.314594E-1,2.965193E-1,6.3456964E-1,2.9631352E-1,1.8158077E-1,-8.929004E-3,-3.79136E-1,-4.453332E-1,-5.0610512E-2,2.232139E-1,-1.8960239E-1,1.24620795E-1,-4.225315E-1,-2.9575747E-1,-6.461764E-2,-2.6060483E-1],"split_indices":[3,13,0,4,15,10,15,3,8,10,2,2,8,3,8,12,10,3,2,13,8,15,2,0,2,0,12,0,0,2,15,3,13,2,0,8,16,12,3,9,13,4,15,0,3,0,3,0,0,0,2,2,2,13,12,0,0,0,0,0,0,0,0,0,0,0,0,0,0,0,0,0,0,0,0,0,0,0,0,0,0,0,0,0,0,0,0,0,0,0,0,0,0],"split_type":[0,0,0,0,0,0,0,0,0,0,0,0,0,0,0,0,0,0,0,0,0,0,0,0,0,0,0,0,0,0,0,0,0,0,0,0,0,0,0,0,0,0,0,0,0,0,0,0,0,0,0,0,0,0,0,0,0,0,0,0,0,0,0,0,0,0,0,0,0,0,0,0,0,0,0,0,0,0,0,0,0,0,0,0,0,0,0,0,0,0,0,0,0],"sum_hessian":[1.948E3,1.416E3,5.32E2,5.88E2,8.28E2,2.95E2,2.37E2,4.81E2,1.07E2,6.83E2,1.45E2,2.7E1,2.68E2,8E0,2.29E2,4.22E2,5.9E1,7.1E1,3.6E1,3.52E2,3.31E2,1.06E2,3.9E1,3E0,2.4E1,3E0,2.65E2,4E0,4E0,3.3E1,1.96E2,2.56E2,1.66E2,3.1E1,2.8E1,3.5E1,3.6E1,1.8E1,1.8E1,2.36E2,1.16E2,3.01E2,3E1,3.4E1,7.2E1,2.3E1,1.6E1,2.1E1,3E0,3E0,2.62E2,1E1,2.3E1,6.9E1,1.27E2,2.9E1,2.27E2,6.6E1,1E2,1E1,2.1E1,9E0,2.6E1,3.3E1,3E0,1.2E1,6E0,1.3E1,5E0,2.12E2,2.4E1,3.6E1,8E1,2.69E2,3.2E1,1.6E1,1.4E1,1.8E1,1.6E1,6.8E1,4E0,1.2E1,4E0,6.6E1,1.96E2,7E0,3E0,2E1,3E0,2.5E1,4.4E1,5E0,1.22E2],"tree_param":{"num_deleted":"0","num_feature":"17","num_nodes":"93","size_leaf_vector":"1"}},{"base_weights":[4.4640204E-1,-1.4106703E1,8.275556E0,-7.400985E0,-1.962774E1,1.146424E1,-5.4401307E0,-1.0883229E1,-4.2485566E0,-2.0679895E1,-1.4207607E1,4.174761E0,1.5645E1,-7.514822E0,2.4581396E1,2.2570483E-2,-1.122375E1,-5.694195E-1,-7.78879E0,-2.0769281E1,-1.6930853E-1,9.455776E-2,-1.5867697E1,5.819357E-1,3.7675998E0,1.3714996E1,2.5469975E1,8.312093E0,-1.0035764E1,2.7991224E1,1.460822E-1,-1.3221328E1,-9.655798E0,-2.694938E0,1.5196359E1,-8.327543E0,1.0305685E-1,-1.3091882E1,-2.095285E1,-4.3085444E-1,-2.8299963E-1,1.0243021E1,2.364328E0,1.0268844E1,2.0893757E1,2.8766409E1,1.3367158E1,2.17981E1,2.004651E-1,-5.0616074E0,-1.3654778E1,3.859262E-1,6.977181E-1,-2.7674717E-1,-1.0469648E-1,-1.4042291E-1,-2.679078E-1,1.1114515E-1,-8.148602E-2,4.00436E-1,5.8054928E-2,7.171938E-2,-1.7974062E-1,-3.7739044E-1,-7.000673E-2,-4.3229148E-1,-3.6368263E-1,2.9773358E-1,-6.427952E-2,-1.6025005E-1,8.379383E-2,1.767494E-1,4.8157984E-1,3.8373268E-1,5.582149E-1,5.2571934E-1,7.2779834E-1,4.8043966E-1,2.1626456E-1,2.3006307E-1,6.028504E-1,-7.684827E-2,2.789232E-1,2.0058905E-1,-1.4886218E-1,-1.8034624E-2,-2.8217018E-1],"categories":[],"categories_nodes":[],"categories_segments":[],"categories_sizes":[],"default_left":[0,0,0,0,0,0,0,0,0,0,0,0,0,0,0,0,0,0,0,0,0,0,0,0,0,0,0,0,0,0,0,0,0,0,0,0,0,0,0,0,0,0,0,0,0,0,0,0,0,0,0,0,0,0,0,0,0,0,0,0,0,0,0,0,0,0,0,0,0,0,0,0,0,0,0,0,0,0,0,0,0,0,0,0,0,0,0],"id":18,"left_children":[1,3,5,7,9,11,13,15,17,19,21,23,25,27,29,-1,31,33,35,37,-1,-1,39,-1,41,43,45,47,49,51,-1,53,55,57,59,61,-1,63,65,-1,-1,67,69,71,73,75,77,79,81,83,85,-1,-1,-1,-1,-1,-1,-1,-1,-1,-1,-1,-1,-1,-1,-1,-1,-1,-1,-1,-1,-1,-1,-1,-1,-1,-1,-1,-1,-1,-1,-1,-1,-1,-1,-1,-1],"loss_changes":[2.2605561E5,2.5542953E4,5.6481703E4,3.4086562E3,1.8662969E3,3.1838656E4,1.5378951E4,6.241328E2,2.1690693E3,1.6334375E2,2.120498E3,3.7702104E3,1.2252734E4,9.220572E3,7.310908E2,0E0,3.2191797E2,2.8198206E3,6.3619385E2,1.5998438E2,0E0,0E0,2.7291602E2,0E0,3.408062E3,1.3583633E4,3.915836E3,3.4918218E3,3.4914473E3,9.5328125E1,0E0,2.2386426E2,7.3933057E2,8.646704E2,5.3051807E2,6.775664E2,0E0,4.8364136E2,1.5596875E2,0E0,0E0,4.2369897E3,5.94255E3,7.2725E3,1.6112734E3,6.1933594E2,4.1356982E2,6.758008E2,1.2226235E3,3.1289805E3,6.4393164E2,0E0,0E0,0E0,0E0,0E0,0E0,0E0,0E0,0E0,0E0,0E0,0E0,0E0,0E0,0E0,0E0,0E0,0E0,0E0,0E0,0E0,0E0,0E0,0E0,0E0,0E0,0E0,0E0,0E0,0E0,0E0,0E0,0E0,0E0,0E0,0E0],"parents":[2147483647,0,0,1,1,2,2,3,3,4,4,5,5,6,6,7,7,8,8,9,9,10,10,11,11,12,12,13,13,14,14,16,16,17,17,18,18,19,19,22,22,24,24,25,25,26,26,27,27,28,28,29,29,31,31,32,32,33,33,34,34,35,35,37,37,38,38,41,41,42,42,43,43,44,44,45,45,46,46,47,47,48,48,49,49,50,50],"right_children":[2,4,6,8,10,12,14,16,18,20,22,24,26,28,30,-1,32,34,36,38,-1,-1,40,-1,42,44,46,48,50,52,-1,54,56,58,60,62,-1,64,66,-1,-1,68,70,72,74,76,78,80,82,84,86,-1,-1,-1,-1,-1,-1,-1,-1,-1,-1,-1,-1,-1,-1,-1,-1,-1,-1,-1,-1,-1,-1,-1,-1,-1,-1,-1,-1,-1,-1,-1,-1,-1,-1,-1,-1],"split_conditions":[4E-1,1E0,2.11E1,7.7E0,3E-1,3.96E-1,1E0,5.27E1,2.1E0,2.508E2,2.03E1,2.1E0,3.06E1,1E0,2.36E-1,2.2570483E-2,1.92E-1,9.3E0,4E0,3.2E0,-1.6930853E-1,9.455776E-2,2.05E1,5.819357E-1,1.93E1,9.4E0,1.88E1,6.9E0,2.15E1,1.52E-1,1.460822E-1,2.05E1,7.3E0,5.75E1,9.02E1,5.3E1,1.0305685E-1,3E-1,1.04E1,-4.3085444E-1,-2.8299963E-1,3.4E0,2.01E1,7E0,1.11E1,1.5E1,2.15E1,5.7E0,5.94E-1,4E0,4.17E1,3.859262E-1,6.977181E-1,-2.7674717E-1,-1.0469648E-1,-1.4042291E-1,-2.679078E-1,1.1114515E-1,-8.148602E-2,4.00436E-1,5.8054928E-2,7.171938E-2,-1.7974062E-1,-3.7739044E-1,-7.000673E-2,-4.3229148E-1,-3.6368263E-1,2.9773358E-1,-6.427952E-2,-1.6025005E-1,8.379383E-2,1.767494E-1,4.8157984E-1,3.8373268E-1,5.582149E-1,5.2571934E-1,7.2779834E-1,4.8043966E-1,2.1626456E-1,2.3006307E-1,6.028504E-1,-7.684827E-2,2.789232E-1,2.0058905E-1,-1.4886218E-1,-1.8034624E-2,-2.8217018E-1],"split_indices":[14,10,3,12,13,13,14,5,15,16,3,12,15,10,13,0,13,12,8,15,0,0,3,0,3,12,3,12,3,13,0,3,12,5,5,5,0,14,12,0,0,14,3,8,12,6,4,12,13,8,5,0,0,0,0,0,0,0,0,0,0,0,0,0,0,0,0,0,0,0,0,0,0,0,0,0,0,0,0,0,0,0,0,0,0,0,0],"split_type":[0,0,0,0,0,0,0,0,0,0,0,0,0,0,0,0,0,0,0,0,0,0,0,0,0,0,0,0,0,0,0,0,0,0,0,0,0,0,0,0,0,0,0,0,0,0,0,0,0,0,0,0,0,0,0,0,0,0,0,0,0,0,0,0,0,0,0,0,0,0,0,0,0,0,0,0,0,0,0,0,0,0,0,0,0,0,0],"sum_hessian":[1.982E3,6.93E2,1.289E3,3.14E2,3.79E2,1.046E3,2.43E2,1.48E2,1.66E2,3.15E2,6.4E1,3.82E2,6.64E2,2.28E2,1.5E1,4E0,1.44E2,8.2E1,8.4E1,3.12E2,3E0,5E0,5.9E1,5E0,3.77E2,5.57E2,1.07E2,3.1E1,1.97E2,1.2E1,3E0,6E1,8.4E1,7.3E1,9E0,8.1E1,3E0,9E0,3.03E2,1.1E1,4.8E1,6.6E1,3.11E2,3.78E2,1.79E2,8.3E1,2.4E1,1.1E1,2E1,8.4E1,1.13E2,7E0,5E0,5.5E1,5E0,5.1E1,3.3E1,1E1,6.3E1,6E0,3E0,4E0,7.7E1,5E0,4E0,2.39E2,6.4E1,4.9E1,1.7E1,4.6E1,2.65E2,3.44E2,3.4E1,1.47E2,3.2E1,6.6E1,1.7E1,3E0,2.1E1,6E0,5E0,1.6E1,4E0,1.1E1,7.3E1,4E0,1.09E2],"tree_param":{"num_deleted":"0","num_feature":"17","num_nodes":"87","size_leaf_vector":"1"}},{"base_weights":[-1.3550112E-1,-1.3576412E1,7.1132417E0,-5.7957063E0,-1.8223606E1,9.728915E0,-7.9253983E0,-7.728108E0,5.2485013E0,-1.9410803E1,-1.029152E1,3.5667453E0,1.39171715E1,-1.0188604E1,2.9605444E1,-8.191018E0,3.8533583E-1,2.1403434E0,3.8245776E-1,-2.0170557E1,-1.5436197E1,3.381168E-1,-1.2517239E1,1.5406822E0,8.03504E0,1.164276E1,2.4079962E1,6.707024E-1,-1.1125572E1,3.667459E-1,7.1812034E-1,-1.1093566E1,-4.6173387E0,4.542822E0,-1.8789227E-1,-1.1950471E1,-2.0607512E1,-4.086414E-1,-1.3886533E1,-1.5040532E-1,1.1863033E-1,-1.3937097E1,-5.7080684E0,-2.5047407E0,5.823052E0,9.119381E0,-2.9940097E0,1.9118082E1,8.60548E0,1.7396175E1,2.6833298E1,-1.1896376E1,1.4997969E0,-2.7029553E-1,-1.3614492E-1,-1.2387174E-1,-1.9070331E-2,4.3681982E-1,1.4828377E-2,-9.403919E-3,-2.840369E-1,-3.0194303E-1,-4.1618878E-1,-1.3137974E-1,-2.8392807E-1,-1.8182035E-1,-3.200558E-1,-3.7473578E-2,-1.8255445E-1,-1.5767369E-1,2.7582364E-2,1.740022E-1,-8.9212835E-2,6.737475E-2,2.148514E-1,1.8483557E-1,-1.5217848E-1,-2.634098E-1,3.9715847E-1,9.1743045E-2,3.246878E-1,9.82144E-2,4.0278178E-1,7.0342743E-1,4.7415152E-1,-1.5154286E-1,-2.8049114E-1,-5.1953558E-2,1.0761278E-1],"categories":[],"categories_nodes":[],"categories_segments":[],"categories_sizes":[],"default_left":[0,0,0,0,0,0,0,0,0,0,0,0,0,0,0,0,0,0,0,0,0,0,0,0,0,0,0,0,0,0,0,0,0,0,0,0,0,0,0,0,0,0,0,0,0,0,0,0,0,0,0,0,0,0,0,0,0,0,0,0,0,0,0,0,0,0,0,0,0,0,0,0,0,0,0,0,0,0,0,0,0,0,0,0,0,0,0,0,0],"id":19,"left_children":[1,3,5,7,9,11,13,15,17,19,21,23,25,27,29,31,-1,33,-1,35,37,39,41,43,45,47,49,-1,51,-1,-1,53,55,57,-1,59,61,-1,63,-1,-1,65,67,69,71,73,75,77,79,81,83,85,87,-1,-1,-1,-1,-1,-1,-1,-1,-1,-1,-1,-1,-1,-1,-1,-1,-1,-1,-1,-1,-1,-1,-1,-1,